//-----------------------------------------------------------------------------
// Network: Met110Mht110FakePho
// Code Authors: Sam Bein, Harrison Prosper, Sezen Sekmen
// Based on CMS Internal Note: IN2011_019 by Prosper, Sekmen, Don Teo// Inputs:
//                                                  Offset       Scale
//    ht                                         4.574e+02   2.516e+02
//    mht                                        1.261e+02   3.511e+01
//    njets                                      3.911e+00   1.369e+00
//
// Created: Mon Oct 17 05:54:40 2016 by netwrite.py
//-----------------------------------------------------------------------------
#include <cmath>
#include <vector>
#include <iostream>
#include <stdlib.h>
#include <algorithm>
//-----------------------------------------------------------------------------
// Make following visible only to this programming unit
namespace {
  // NOTE: Network indices start at 0
  static const int nnetworks=200;
  static const int ninputs  =3;
  static const int nhidden  =10;
  static const int nparams  =51;

  static const double mean[ninputs]={
  4.5740e+02,
  1.2610e+02,
  3.9110e+00
  };

  static const double sigma[ninputs]={
  2.5160e+02,
  3.5110e+01,
  1.3690e+00
  };

  static const double weight[nnetworks][nparams]={
    {-2.9010e+00,-1.6200e-01,-3.3800e-01, 1.5900e-01,-9.8900e-01, 6.3300e-01,
     -4.4000e-02,-4.9700e-01,-1.4510e+00,-2.6000e-02, 3.0000e-03,-3.9000e-02,
     -9.0600e-01, 3.0000e-02,-4.2700e-01, 8.4000e-02, 1.1900e-01, 1.4660e+00,
      1.5300e-01,-9.7000e-02,-9.9000e-02,-5.3100e-01, 5.1200e-01,-7.0000e-02,
     -2.2750e+00, 1.0300e-01,-2.5300e-01,-6.6000e-02, 1.0960e+00,-7.8000e-02,
     -1.8900e-01,-3.4200e-01,-1.8390e+00,-1.6500e-01,-5.2900e-01, 1.1000e-01,
      1.6270e+00,-6.6600e-01,-5.8800e-01, 4.6900e-01,-1.5051e+01,-2.2700e+00,
      8.8600e-01,-4.2520e+00,-3.2910e+00, 1.0660e+00, 1.4150e+00,-9.2700e-01,
     -9.1800e-01,-4.5410e+00, 4.3000e-02
    },
    {-2.8680e+00,-4.5000e-02,-3.2400e-01, 1.1000e-01,-9.4800e-01, 6.2500e-01,
     -6.7000e-02,-4.5800e-01,-1.3950e+00,-3.1000e-02, 1.5000e-02,-3.9000e-02,
     -9.2400e-01, 1.8000e-02,-4.2300e-01, 7.7000e-02, 1.0000e-01, 1.4830e+00,
      1.4200e-01,-9.7000e-02,-9.6000e-02,-4.5300e-01, 5.0400e-01,-9.4000e-02,
     -2.3030e+00, 1.2300e-01,-2.1100e-01,-1.0500e-01, 1.0560e+00,-6.2000e-02,
     -1.5300e-01,-2.9900e-01,-1.8420e+00,-1.3300e-01,-6.2900e-01, 5.4000e-02,
      1.6320e+00,-6.7500e-01,-5.7500e-01, 4.9200e-01,-1.4974e+01,-2.2310e+00,
      7.7100e-01,-4.2840e+00,-3.4020e+00, 9.6800e-01, 1.4410e+00,-8.2200e-01,
     -1.0070e+00,-4.6020e+00,-5.0000e-02
    },
    {-2.7320e+00,-6.0000e-02,-3.9100e-01, 6.8000e-02,-1.0270e+00, 6.7000e-01,
     -7.9000e-02,-4.3700e-01,-1.3260e+00,-7.8000e-02, 1.4000e-02,-1.6000e-02,
     -9.0200e-01, 2.4000e-02,-4.1100e-01, 1.0300e-01, 1.3700e-01, 1.5080e+00,
      1.5300e-01,-1.3400e-01,-1.2400e-01,-4.7300e-01, 4.8400e-01,-8.0000e-02,
     -2.2890e+00, 1.1500e-01,-1.8100e-01,-1.5300e-01, 1.0510e+00,-3.0000e-02,
     -9.9000e-02,-3.4600e-01,-1.8470e+00,-1.1500e-01,-6.1400e-01, 4.2000e-02,
      1.6330e+00,-7.5000e-01,-4.9500e-01, 4.7400e-01,-1.4945e+01,-2.2630e+00,
      6.7500e-01,-4.3420e+00,-3.2900e+00, 9.8900e-01, 1.5570e+00,-9.1700e-01,
     -9.5900e-01,-4.6150e+00,-1.7100e-01
    },
    {-2.7390e+00,-7.0000e-02,-4.3200e-01, 2.2300e-01,-9.9600e-01, 7.3000e-01,
     -1.2200e-01,-5.1000e-01,-1.4480e+00,-7.7000e-02, 1.9000e-02,-3.4000e-02,
     -9.1400e-01, 2.2000e-02,-4.2900e-01, 1.0300e-01, 1.2200e-01, 1.5120e+00,
      1.9300e-01,-2.0700e-01,-8.1000e-02,-4.6500e-01, 4.7800e-01,-5.4000e-02,
     -2.3890e+00, 9.1000e-02,-3.8900e-01,-8.1000e-02, 1.0360e+00,-3.9000e-02,
     -1.1400e-01,-3.8300e-01,-1.9270e+00,-8.5000e-02,-6.1900e-01, 8.3000e-02,
      1.6330e+00,-6.4000e-01,-2.7600e-01, 4.4900e-01,-1.4890e+01,-2.1550e+00,
      6.1100e-01,-4.2590e+00,-3.2180e+00, 1.0450e+00, 1.5420e+00,-9.3200e-01,
     -1.0040e+00,-4.6090e+00,-2.5000e-01
    },
    {-2.7380e+00,-9.6000e-02,-4.7400e-01, 2.3100e-01,-9.9400e-01, 7.4500e-01,
     -1.4900e-01,-5.0800e-01,-1.4420e+00,-1.1100e-01,-1.3000e-02,-2.3000e-02,
     -9.3300e-01, 2.9000e-02,-4.5300e-01, 1.0400e-01, 1.1200e-01, 1.4190e+00,
      1.7000e-01,-2.1200e-01,-8.2000e-02,-4.8400e-01, 4.7200e-01,-3.9000e-02,
     -2.3630e+00, 1.2000e-01,-3.5400e-01,-8.7000e-02, 1.0500e+00,-7.8000e-02,
     -1.0900e-01,-3.6900e-01,-1.9560e+00,-9.1000e-02,-6.3300e-01, 3.7000e-02,
      1.6040e+00,-6.7000e-01,-2.8400e-01, 4.3300e-01,-1.4939e+01,-2.3130e+00,
      5.1000e-01,-4.3390e+00,-3.0980e+00, 1.0670e+00, 1.5450e+00,-8.2500e-01,
     -8.5400e-01,-4.4250e+00,-2.6200e-01
    },
    {-2.7530e+00,-1.4100e-01,-4.6600e-01, 3.7000e-01,-1.0480e+00, 7.0400e-01,
     -2.0400e-01,-5.4800e-01,-1.4600e+00,-7.7000e-02,-2.0000e-02,-4.6000e-02,
     -9.5200e-01, 4.9000e-02,-4.5100e-01, 9.5000e-02, 1.1100e-01, 1.4050e+00,
      1.7700e-01,-2.4400e-01,-7.5000e-02,-5.1000e-01, 4.6400e-01,-3.4000e-02,
     -2.4280e+00, 1.2100e-01,-3.8400e-01,-1.2400e-01, 1.0980e+00,-7.2000e-02,
     -8.0000e-02,-4.0500e-01,-1.9740e+00,-1.3500e-01,-5.9900e-01, 3.7000e-02,
      1.6350e+00,-6.8200e-01,-1.8100e-01, 3.7800e-01,-1.4980e+01,-2.3350e+00,
      5.3600e-01,-4.4740e+00,-3.1110e+00, 1.1870e+00, 1.6050e+00,-1.1210e+00,
     -8.9300e-01,-4.1640e+00,-4.2200e-01
    },
    {-2.6890e+00,-5.4000e-02,-4.2600e-01, 3.0000e-01,-9.7500e-01, 8.0800e-01,
     -1.1200e-01,-4.6900e-01,-1.4720e+00,-6.5000e-02, 2.7000e-02,-1.0000e-03,
     -9.1700e-01, 1.5000e-02,-4.2700e-01, 1.3200e-01,-3.0000e-03, 1.3510e+00,
      2.1600e-01,-1.5300e-01,-3.9000e-02,-4.9300e-01, 4.8400e-01,-5.7000e-02,
     -2.4270e+00, 8.7000e-02,-3.0500e-01,-1.2200e-01, 1.0040e+00,-9.0000e-03,
     -8.7000e-02,-4.0100e-01,-1.9130e+00,-1.4900e-01,-5.4400e-01, 6.1000e-02,
      1.6800e+00,-5.9600e-01,-2.2400e-01, 4.2400e-01,-1.4882e+01,-2.4460e+00,
      4.0100e-01,-4.4470e+00,-3.0190e+00, 1.1350e+00, 1.5690e+00,-1.0940e+00,
     -9.7800e-01,-4.1180e+00,-4.7100e-01
    },
    {-2.7710e+00,-1.9000e-02,-4.1100e-01, 2.3000e-01,-9.9400e-01, 8.5200e-01,
     -1.4300e-01,-4.1700e-01,-1.5030e+00,-3.7000e-02, 2.9000e-02,-1.4000e-02,
     -9.6400e-01, 1.2000e-02,-4.4100e-01, 1.3400e-01, 2.8000e-02, 1.2850e+00,
      1.8500e-01,-1.4700e-01, 5.0000e-03,-5.1500e-01, 4.5500e-01,-3.3000e-02,
     -2.4320e+00, 1.2100e-01,-3.1300e-01,-9.3000e-02, 1.0210e+00, 1.5000e-02,
     -7.1000e-02,-3.7700e-01,-1.9120e+00,-9.8000e-02,-5.7500e-01, 1.0000e-02,
      1.7050e+00,-5.6200e-01,-2.3900e-01, 4.5400e-01,-1.5064e+01,-2.4290e+00,
      5.8300e-01,-4.3850e+00,-3.2970e+00, 1.2480e+00, 1.6640e+00,-1.0330e+00,
     -9.8600e-01,-4.1920e+00,-4.3700e-01
    },
    {-2.7280e+00,-8.6000e-02,-3.5300e-01, 2.7400e-01,-8.9400e-01, 8.5000e-01,
     -2.2400e-01,-3.3600e-01,-1.4520e+00,-1.6000e-02, 2.4000e-02, 1.6000e-02,
     -9.9100e-01, 4.2000e-02,-4.5500e-01, 1.4500e-01, 9.9000e-02, 1.2610e+00,
      1.6200e-01,-1.4500e-01,-4.1000e-02,-5.2200e-01, 4.6400e-01,-3.9000e-02,
     -2.4410e+00, 1.0000e-01,-2.6600e-01,-1.0400e-01, 9.7200e-01,-6.1000e-02,
     -7.9000e-02,-4.1500e-01,-1.9400e+00,-1.0300e-01,-6.6800e-01,-2.0000e-02,
      1.6770e+00,-5.2900e-01,-2.7200e-01, 4.6100e-01,-1.4925e+01,-2.2040e+00,
      6.1200e-01,-4.4850e+00,-3.2360e+00, 1.2830e+00, 1.6790e+00,-8.9800e-01,
     -9.3200e-01,-4.2470e+00,-3.9800e-01
    },
    {-2.7550e+00,-3.8000e-02,-2.9000e-01, 2.7600e-01,-8.2500e-01, 8.3800e-01,
     -1.3800e-01,-2.5500e-01,-1.4690e+00, 1.1000e-02,-4.3000e-02, 2.2000e-02,
     -1.0480e+00, 2.8000e-02,-4.6100e-01, 1.3200e-01, 7.3000e-02, 1.2610e+00,
      1.6900e-01,-1.4200e-01,-6.0000e-03,-5.6800e-01, 4.6000e-01,-9.2000e-02,
     -2.3990e+00, 4.2000e-02,-2.5800e-01,-5.7000e-02, 8.6800e-01,-3.5000e-02,
     -5.5000e-02,-4.1800e-01,-1.8510e+00,-1.2100e-01,-6.7800e-01, 1.6000e-02,
      1.6280e+00,-4.7900e-01,-2.5300e-01, 3.5800e-01,-1.4924e+01,-2.3190e+00,
      6.7800e-01,-4.3840e+00,-3.1540e+00, 1.2490e+00, 1.7180e+00,-9.1600e-01,
     -1.0060e+00,-4.2750e+00,-4.8100e-01
    },
    {-2.6790e+00,-7.8000e-02,-2.3300e-01, 2.8000e-01,-9.0700e-01, 8.1800e-01,
     -1.8800e-01,-2.8900e-01,-1.4740e+00,-9.0000e-03,-6.4000e-02, 5.6000e-02,
     -1.0520e+00, 2.9000e-02,-4.7100e-01, 1.0800e-01, 1.3500e-01, 1.2590e+00,
      1.6200e-01,-9.6000e-02, 3.0000e-03,-5.4900e-01, 4.6000e-01,-9.0000e-02,
     -2.3930e+00, 3.5000e-02,-3.0900e-01, 0.0000e+00, 9.3500e-01,-4.4000e-02,
     -5.3000e-02,-3.8900e-01,-1.8830e+00,-1.0000e-01,-5.7900e-01, 6.2000e-02,
      1.6050e+00,-4.8700e-01,-2.9700e-01, 3.7200e-01,-1.4916e+01,-2.3830e+00,
      8.0200e-01,-4.2430e+00,-3.1730e+00, 1.2440e+00, 1.7790e+00,-8.4800e-01,
     -1.0800e+00,-4.3500e+00,-3.2200e-01
    },
    {-2.7120e+00,-4.3000e-02,-2.6900e-01, 2.4100e-01,-9.3700e-01, 7.8900e-01,
     -2.4400e-01,-3.4000e-01,-1.4270e+00,-6.1000e-02,-3.5000e-02, 4.6000e-02,
     -9.7300e-01, 3.5000e-02,-4.4000e-01, 1.1400e-01, 8.6000e-02, 1.3420e+00,
      1.6600e-01,-1.0800e-01,-2.4000e-02,-5.2000e-01, 4.7300e-01,-6.1000e-02,
     -2.3920e+00, 1.1400e-01,-2.5800e-01,-8.0000e-03, 9.6000e-01,-6.1000e-02,
     -2.5000e-02,-3.6600e-01,-1.8430e+00,-1.2700e-01,-6.1200e-01, 9.3000e-02,
      1.6660e+00,-4.6000e-01,-3.0800e-01, 4.0800e-01,-1.4764e+01,-2.3460e+00,
      6.7000e-01,-4.3440e+00,-3.1090e+00, 1.2050e+00, 1.7000e+00,-9.1000e-01,
     -1.0680e+00,-4.3030e+00,-2.9700e-01
    },
    {-2.6820e+00,-2.0000e-02,-2.8400e-01, 2.5200e-01,-9.0400e-01, 8.2900e-01,
     -2.3900e-01,-3.8900e-01,-1.3480e+00,-4.0000e-03,-3.8000e-02,-1.9000e-02,
     -9.2300e-01, 1.2000e-02,-4.2500e-01, 1.0500e-01, 1.4200e-01, 1.2960e+00,
      1.6500e-01,-1.0900e-01, 1.8000e-02,-4.6400e-01, 4.4000e-01,-6.8000e-02,
     -2.3760e+00, 1.4800e-01,-2.6300e-01,-3.1000e-02, 9.9800e-01,-1.0100e-01,
     -1.4000e-02,-3.7800e-01,-1.8580e+00,-6.5000e-02,-5.5900e-01, 1.0400e-01,
      1.5920e+00,-5.7400e-01,-3.3100e-01, 3.9400e-01,-1.4823e+01,-2.3880e+00,
      5.8400e-01,-4.2450e+00,-3.1310e+00, 1.1690e+00, 1.6820e+00,-9.9400e-01,
     -9.9800e-01,-4.2560e+00,-3.3600e-01
    },
    {-2.7330e+00,-5.2000e-02,-3.4600e-01, 2.7300e-01,-8.7400e-01, 8.1100e-01,
     -2.3600e-01,-2.5200e-01,-1.3370e+00,-1.0000e-02,-3.8000e-02,-6.9000e-02,
     -9.4200e-01, 3.9000e-02,-4.4800e-01, 1.1000e-01, 1.0100e-01, 1.3010e+00,
      1.2500e-01,-7.2000e-02, 3.0000e-02,-5.1100e-01, 4.4900e-01,-1.1800e-01,
     -2.2870e+00, 9.1000e-02,-3.1800e-01,-4.0000e-03, 1.0670e+00,-6.0000e-02,
     -5.0000e-03,-3.5100e-01,-1.8210e+00,-1.2300e-01,-5.9000e-01, 9.7000e-02,
      1.5770e+00,-5.7900e-01,-3.6900e-01, 3.5100e-01,-1.4867e+01,-2.4180e+00,
      7.5000e-01,-4.4050e+00,-3.1760e+00, 1.2110e+00, 1.8230e+00,-1.0340e+00,
     -1.0760e+00,-4.2660e+00,-3.7800e-01
    },
    {-2.7990e+00, 5.5000e-02,-3.5700e-01, 2.2100e-01,-9.3300e-01, 7.7900e-01,
     -2.6000e-01,-2.5600e-01,-1.4570e+00,-2.9000e-02,-7.0000e-03, 9.1000e-02,
     -8.8600e-01, 4.6000e-02,-4.3700e-01, 1.0300e-01, 1.6100e-01, 1.4070e+00,
      1.4100e-01,-1.2400e-01, 2.9000e-02,-5.2200e-01, 4.4300e-01,-1.5000e-02,
     -2.3840e+00, 9.1000e-02,-2.7300e-01,-6.8000e-02, 1.2040e+00,-1.0200e-01,
     -5.9000e-02,-4.2100e-01,-1.8390e+00,-1.2800e-01,-5.5400e-01, 4.8000e-02,
      1.6550e+00,-5.2600e-01,-2.9500e-01, 4.8700e-01,-1.4717e+01,-2.4920e+00,
      8.4800e-01,-4.3320e+00,-3.0460e+00, 1.1930e+00, 1.8370e+00,-1.0990e+00,
     -1.1330e+00,-4.2310e+00,-3.2800e-01
    },
    {-2.6720e+00, 5.0000e-03,-3.3100e-01, 2.5600e-01,-9.5600e-01, 7.8400e-01,
     -2.5400e-01,-1.7600e-01,-1.3770e+00,-3.1000e-02,-4.0000e-03, 8.6000e-02,
     -9.2700e-01,-4.0000e-03,-4.4700e-01, 1.5500e-01, 9.4000e-02, 1.2980e+00,
      1.4800e-01,-9.4000e-02, 4.1000e-02,-5.0800e-01, 4.5000e-01,-5.8000e-02,
     -2.4350e+00,-3.2000e-02,-2.5600e-01,-2.1300e-01, 1.0800e+00, 1.5000e-02,
     -6.1000e-02,-4.4100e-01,-1.8030e+00,-9.3000e-02,-4.4300e-01,-1.1000e-02,
      1.7130e+00,-4.8400e-01,-3.0700e-01, 5.2400e-01,-1.4765e+01,-2.4230e+00,
      8.2000e-01,-4.4370e+00,-3.0330e+00, 1.2220e+00, 1.8900e+00,-1.2110e+00,
     -1.2610e+00,-4.3020e+00,-4.2700e-01
    },
    {-2.5620e+00,-2.8000e-02,-3.0400e-01, 2.4500e-01,-9.8500e-01, 7.7500e-01,
     -2.3400e-01,-1.1500e-01,-1.3430e+00, 1.3000e-02,-7.6000e-02,-3.9000e-02,
     -9.1100e-01, 4.0000e-02,-4.5700e-01, 1.3800e-01, 9.3000e-02, 1.2920e+00,
      1.5200e-01,-1.2000e-01, 8.6000e-02,-5.0600e-01, 4.1200e-01,-1.1600e-01,
     -2.5520e+00,-9.8000e-02,-1.9300e-01,-1.9800e-01, 1.1100e+00,-4.8000e-02,
     -1.8000e-02,-3.7100e-01,-1.7170e+00,-7.8000e-02,-2.9100e-01, 3.2000e-02,
      1.8630e+00,-6.3500e-01,-1.4900e-01, 6.2800e-01,-1.4809e+01,-2.5020e+00,
      7.9300e-01,-4.5450e+00,-3.1460e+00, 1.2660e+00, 1.8520e+00,-1.2870e+00,
     -1.3690e+00,-4.2500e+00,-5.2800e-01
    },
    {-2.6270e+00, 3.4000e-02,-2.9200e-01, 2.1700e-01,-1.0710e+00, 7.1200e-01,
     -1.6100e-01,-2.3800e-01,-1.3610e+00, 2.7000e-02, 7.0000e-03,-3.8000e-02,
     -8.5500e-01, 2.8000e-02,-4.4900e-01, 1.1400e-01, 5.8000e-02, 1.2220e+00,
      1.6300e-01,-1.0000e-01, 2.5000e-02,-4.5300e-01, 4.1900e-01,-8.9000e-02,
     -2.5890e+00,-1.2800e-01,-2.5800e-01,-1.2300e-01, 1.1020e+00,-6.3000e-02,
     -1.1000e-02,-2.9800e-01,-1.8410e+00,-5.6000e-02,-2.6200e-01,-3.0000e-03,
      1.7230e+00,-6.7400e-01,-6.5000e-02, 8.1100e-01,-1.4636e+01,-2.5250e+00,
      6.5300e-01,-4.5690e+00,-3.2240e+00, 1.3480e+00, 1.8320e+00,-1.2780e+00,
     -1.4390e+00,-4.0600e+00,-5.0000e-01
    },
    {-2.5610e+00, 3.0000e-03,-2.5500e-01, 2.2300e-01,-1.0190e+00, 7.2300e-01,
     -1.6700e-01,-2.5300e-01,-1.3510e+00, 2.9000e-02,-2.0000e-03,-6.2000e-02,
     -8.3800e-01, 2.5000e-02,-4.4300e-01, 1.1600e-01, 8.7000e-02, 1.2330e+00,
      1.4400e-01,-1.1400e-01, 1.9000e-02,-4.8500e-01, 4.0800e-01,-8.5000e-02,
     -2.5780e+00,-1.2800e-01,-2.0000e-01,-1.6600e-01, 1.1740e+00,-4.9000e-02,
     -1.0000e-02,-3.6300e-01,-1.8270e+00,-5.5000e-02,-2.7800e-01,-4.6000e-02,
      1.7980e+00,-5.9100e-01,-6.2000e-02, 7.7300e-01,-1.4756e+01,-2.4840e+00,
      8.9200e-01,-4.6470e+00,-3.0960e+00, 1.4030e+00, 2.0030e+00,-1.2560e+00,
     -1.3110e+00,-4.2820e+00,-3.8800e-01
    },
    {-2.5210e+00, 1.2000e-02,-2.3600e-01, 1.6300e-01,-9.9700e-01, 7.0300e-01,
     -1.6000e-01,-2.2300e-01,-1.3190e+00,-8.0000e-03,-3.0000e-03,-2.7000e-02,
     -8.3500e-01, 5.0000e-02,-4.4900e-01, 1.2500e-01, 7.9000e-02, 1.2240e+00,
      1.4900e-01,-8.9000e-02, 4.0000e-03,-4.6900e-01, 3.8400e-01,-7.9000e-02,
     -2.5020e+00,-9.2000e-02,-1.8900e-01,-2.1000e-01, 1.1260e+00,-5.6000e-02,
     -2.1000e-02,-3.6500e-01,-1.7830e+00,-4.9000e-02,-3.0200e-01,-4.5000e-02,
      1.7830e+00,-5.9500e-01,-4.6000e-02, 7.7300e-01,-1.4691e+01,-2.4100e+00,
      8.0500e-01,-4.6470e+00,-3.0470e+00, 1.4080e+00, 1.9730e+00,-1.2320e+00,
     -1.2240e+00,-4.3400e+00,-4.4500e-01
    },
    {-2.5420e+00, 1.0000e-03,-3.1400e-01, 1.0800e-01,-9.9100e-01, 6.8700e-01,
     -1.4300e-01,-2.0400e-01,-1.3500e+00,-1.7000e-02,-1.9000e-02,-1.0000e-03,
     -7.7100e-01, 3.5000e-02,-4.4200e-01, 1.4600e-01, 6.4000e-02, 1.1730e+00,
      1.3800e-01,-9.4000e-02, 3.1000e-02,-4.8700e-01, 3.7800e-01,-8.2000e-02,
     -2.5050e+00,-1.5300e-01,-2.3900e-01,-1.9100e-01, 1.1500e+00,-5.2000e-02,
     -1.6000e-02,-4.2500e-01,-1.7140e+00, 7.0000e-03,-3.6000e-01,-3.3000e-02,
      1.8120e+00,-6.1400e-01, 3.0000e-02, 6.7400e-01,-1.4608e+01,-2.5950e+00,
      6.6900e-01,-4.5620e+00,-2.8340e+00, 1.4340e+00, 1.8460e+00,-1.2550e+00,
     -1.2460e+00,-4.2750e+00,-4.6600e-01
    },
    {-2.4550e+00, 2.9000e-02,-2.1100e-01, 1.3400e-01,-9.4300e-01, 6.7600e-01,
     -1.7100e-01,-2.0400e-01,-1.3180e+00,-6.0000e-03, 3.0000e-03,-2.5000e-02,
     -8.0900e-01, 5.0000e-03,-4.6600e-01, 1.0000e-01, 5.8000e-02, 1.1790e+00,
      1.5400e-01,-1.3400e-01, 4.7000e-02,-4.7500e-01, 4.0700e-01,-5.9000e-02,
     -2.4930e+00,-1.4600e-01,-1.3800e-01,-2.2200e-01, 1.1810e+00,-1.3000e-02,
     -3.3000e-02,-3.3500e-01,-1.7180e+00, 4.9000e-02,-3.2100e-01,-1.8000e-02,
      1.8530e+00,-6.4700e-01,-1.1000e-02, 7.2200e-01,-1.4687e+01,-2.6810e+00,
      7.1200e-01,-4.6170e+00,-2.9560e+00, 1.3840e+00, 1.8450e+00,-1.1880e+00,
     -1.2220e+00,-4.2560e+00,-5.3000e-01
    },
    {-2.4500e+00, 3.0000e-03,-2.3500e-01, 1.1200e-01,-9.3800e-01, 7.8200e-01,
     -2.3000e-01,-2.3900e-01,-1.3040e+00,-2.5000e-02, 1.0000e-02,-4.8000e-02,
     -7.9200e-01, 2.8000e-02,-4.4900e-01, 1.2300e-01,-1.1000e-02, 1.1940e+00,
      1.3900e-01,-1.4200e-01, 5.1000e-02,-5.1500e-01, 3.6400e-01,-4.9000e-02,
     -2.4530e+00,-1.1800e-01,-1.9900e-01,-2.8200e-01, 1.1920e+00,-1.9000e-02,
     -1.7000e-02,-3.6300e-01,-1.7190e+00,-8.0000e-03,-3.1500e-01, 1.7000e-02,
      1.9380e+00,-6.3300e-01,-6.2000e-02, 7.1700e-01,-1.4565e+01,-2.5120e+00,
      6.4200e-01,-4.6400e+00,-3.0790e+00, 1.4850e+00, 2.0050e+00,-1.2900e+00,
     -1.2920e+00,-4.2550e+00,-5.8400e-01
    },
    {-2.4320e+00, 1.6000e-02,-1.6400e-01, 1.8600e-01,-1.0020e+00, 7.7800e-01,
     -2.2500e-01,-2.4100e-01,-1.2890e+00,-2.6000e-02,-7.0000e-03,-1.7000e-02,
     -8.1300e-01, 2.1000e-02,-4.4200e-01, 1.0000e-01, 5.0000e-02, 1.2120e+00,
      1.1500e-01,-6.4000e-02, 6.4000e-02,-5.1000e-01, 3.7400e-01,-1.0200e-01,
     -2.5070e+00,-4.8000e-02,-1.9400e-01,-2.3300e-01, 1.1970e+00,-4.6000e-02,
     -1.8000e-02,-3.5200e-01,-1.7190e+00, 1.1000e-02,-3.7500e-01, 1.0000e-03,
      1.9180e+00,-6.7600e-01,-1.0000e-03, 7.0400e-01,-1.4649e+01,-2.6410e+00,
      7.3100e-01,-4.5590e+00,-2.9870e+00, 1.4690e+00, 2.0240e+00,-1.2870e+00,
     -1.2880e+00,-4.1950e+00,-4.5200e-01
    },
    {-2.4500e+00,-1.1100e-01,-1.8800e-01, 2.1400e-01,-1.0770e+00, 8.9700e-01,
     -2.2300e-01,-2.3100e-01,-1.2240e+00,-2.2000e-02, 1.2000e-02,-3.6000e-02,
     -7.8900e-01, 2.6000e-02,-4.0000e-01, 7.0000e-02, 1.3000e-01, 1.2300e+00,
      1.2900e-01,-1.1400e-01, 2.9000e-02,-4.8600e-01, 4.1700e-01,-1.0000e-01,
     -2.4890e+00,-2.1000e-02,-2.2500e-01,-2.2900e-01, 1.1670e+00,-3.8000e-02,
     -6.3000e-02,-2.7500e-01,-1.6600e+00, 1.0000e-03,-3.9100e-01, 7.0000e-02,
      1.8360e+00,-7.4500e-01, 1.9000e-02, 6.7900e-01,-1.4578e+01,-2.6670e+00,
      6.1900e-01,-4.6370e+00,-2.7910e+00, 1.4050e+00, 1.9980e+00,-1.2940e+00,
     -1.3650e+00,-4.2540e+00,-4.4900e-01
    },
    {-2.3790e+00,-1.1500e-01,-1.4800e-01, 2.2900e-01,-1.1270e+00, 8.7900e-01,
     -1.9000e-01,-1.8500e-01,-1.2200e+00,-2.7000e-02, 1.3000e-02, 1.2000e-02,
     -7.9100e-01,-1.2000e-02,-3.8600e-01, 8.0000e-02, 1.5300e-01, 1.2480e+00,
      1.3600e-01,-1.2900e-01, 4.7000e-02,-4.6300e-01, 4.0200e-01,-4.3000e-02,
     -2.4310e+00,-4.5000e-02,-2.0100e-01,-2.2400e-01, 1.2150e+00,-4.2000e-02,
     -8.4000e-02,-2.9400e-01,-1.7180e+00, 2.7000e-02,-4.1300e-01, 8.2000e-02,
      1.8810e+00,-7.3900e-01, 3.9000e-02, 6.6800e-01,-1.4748e+01,-2.6270e+00,
      5.9700e-01,-4.6840e+00,-2.9220e+00, 1.3350e+00, 1.9390e+00,-1.3430e+00,
     -1.4230e+00,-4.2560e+00,-3.9900e-01
    },
    {-2.4020e+00,-1.1900e-01,-2.3300e-01, 1.5500e-01,-1.0810e+00, 8.8300e-01,
     -1.8000e-01,-2.1300e-01,-1.1870e+00,-7.0000e-03, 1.8000e-02, 1.4000e-02,
     -7.7900e-01, 4.4000e-02,-3.6300e-01, 8.0000e-02, 1.3100e-01, 1.2910e+00,
      1.5400e-01,-6.1000e-02, 7.1000e-02,-5.3000e-01, 4.2200e-01,-8.6000e-02,
     -2.4920e+00,-5.7000e-02,-2.3500e-01,-2.3700e-01, 1.1870e+00,-4.6000e-02,
     -6.6000e-02,-2.9800e-01,-1.6080e+00,-4.7000e-02,-4.3200e-01, 6.5000e-02,
      1.9350e+00,-7.4500e-01,-6.1000e-02, 7.0700e-01,-1.4827e+01,-2.6230e+00,
      8.1100e-01,-4.8910e+00,-3.0660e+00, 1.3560e+00, 1.8690e+00,-1.3150e+00,
     -1.4700e+00,-4.3260e+00,-3.3300e-01
    },
    {-2.4020e+00,-1.1900e-01,-2.1800e-01, 2.1400e-01,-1.0940e+00, 8.6300e-01,
     -1.6100e-01,-2.1300e-01,-1.1330e+00,-7.0000e-03, 8.0000e-03, 3.7000e-02,
     -8.0100e-01, 2.6000e-02,-4.1200e-01, 1.1600e-01, 1.1000e-01, 1.3020e+00,
      1.4600e-01,-6.8000e-02, 8.4000e-02,-5.0700e-01, 3.8100e-01,-5.5000e-02,
     -2.4910e+00,-3.1000e-02,-2.2200e-01,-2.1800e-01, 1.1690e+00,-5.2000e-02,
     -4.0000e-02,-3.6300e-01,-1.6470e+00,-1.0500e-01,-4.2600e-01, 5.8000e-02,
      1.9720e+00,-7.6000e-01,-3.5000e-02, 7.2900e-01,-1.4831e+01,-2.6940e+00,
      7.3800e-01,-4.6900e+00,-3.1390e+00, 1.3610e+00, 1.8720e+00,-1.3390e+00,
     -1.3990e+00,-4.2490e+00,-3.1100e-01
    },
    {-2.4130e+00,-7.3000e-02,-2.9300e-01, 1.8300e-01,-1.0770e+00, 9.2500e-01,
     -1.8700e-01,-2.4500e-01,-1.1240e+00, 1.0000e-03, 1.6000e-02, 5.7000e-02,
     -8.3300e-01, 5.7000e-02,-3.7200e-01, 1.0100e-01, 8.0000e-02, 1.3140e+00,
      1.5300e-01,-7.6000e-02, 7.4000e-02,-5.4800e-01, 3.8400e-01,-3.8000e-02,
     -2.5290e+00,-3.2000e-02,-2.0400e-01,-2.2500e-01, 1.1520e+00,-7.2000e-02,
     -5.2000e-02,-3.8200e-01,-1.6280e+00,-1.5400e-01,-4.2400e-01, 9.6000e-02,
      1.9430e+00,-7.8200e-01,-2.5000e-02, 7.8500e-01,-1.4865e+01,-2.8200e+00,
      7.2600e-01,-4.6440e+00,-3.2570e+00, 1.3200e+00, 1.8440e+00,-1.3040e+00,
     -1.5570e+00,-4.3740e+00,-4.2100e-01
    },
    {-2.4480e+00,-1.9000e-02,-1.8500e-01, 2.4000e-01,-1.0640e+00, 8.9800e-01,
     -2.1600e-01,-2.3700e-01,-1.0920e+00,-1.0000e-02, 6.0000e-03, 4.8000e-02,
     -7.7100e-01, 3.5000e-02,-4.0900e-01, 8.4000e-02, 9.3000e-02, 1.3330e+00,
      1.6000e-01,-7.5000e-02, 8.6000e-02,-5.5200e-01, 3.7800e-01,-3.3000e-02,
     -2.5270e+00, 3.2000e-02,-2.1600e-01,-2.7300e-01, 1.1580e+00,-5.9000e-02,
     -3.3000e-02,-3.5100e-01,-1.5930e+00,-1.1800e-01,-4.3200e-01, 1.0000e-01,
      2.0000e+00,-7.5000e-01,-6.2000e-02, 8.4900e-01,-1.4761e+01,-2.8010e+00,
      6.8500e-01,-4.6160e+00,-3.3050e+00, 1.2980e+00, 1.7730e+00,-1.3310e+00,
     -1.5060e+00,-4.2830e+00,-3.7400e-01
    },
    {-2.3340e+00,-2.3900e-01,-3.5400e-01, 1.9400e-01,-1.1400e+00, 1.0520e+00,
     -8.8000e-02,-2.0800e-01,-1.1690e+00,-5.1000e-02,-5.3000e-02, 5.5000e-02,
     -9.1500e-01, 6.7000e-02,-3.9200e-01, 1.4500e-01, 1.4500e-01, 1.2720e+00,
      1.0000e-01,-7.4000e-02,-2.9000e-02,-6.7600e-01, 4.9500e-01,-4.1000e-02,
     -2.5380e+00,-8.4000e-02,-2.4600e-01,-2.0800e-01, 1.0590e+00,-6.9000e-02,
      5.0000e-02,-3.3300e-01,-1.7320e+00,-2.0300e-01,-4.5200e-01, 4.5000e-02,
      2.1450e+00,-8.1700e-01,-1.6000e-02, 8.7000e-01,-1.4871e+01,-2.5750e+00,
      6.3500e-01,-4.6460e+00,-3.2860e+00, 1.3450e+00, 1.7240e+00,-1.3370e+00,
     -1.4580e+00,-4.0930e+00,-3.0800e-01
    },
    {-2.3430e+00,-2.2700e-01,-2.7200e-01, 2.0900e-01,-1.1560e+00, 9.9600e-01,
     -1.3600e-01,-2.5800e-01,-1.1620e+00,-2.1000e-02,-4.2000e-02, 4.7000e-02,
     -9.4400e-01, 5.4000e-02,-3.9600e-01, 1.3900e-01, 9.7000e-02, 1.2920e+00,
      1.7100e-01,-1.3500e-01, 4.6000e-02,-5.7400e-01, 4.9300e-01,-7.1000e-02,
     -2.5710e+00,-6.1000e-02,-3.3400e-01,-1.6000e-01, 9.3900e-01,-5.4000e-02,
      9.0000e-03,-3.7600e-01,-1.7570e+00,-2.1700e-01,-4.1000e-01, 6.1000e-02,
      2.0750e+00,-7.6400e-01,-1.2000e-02, 8.7600e-01,-1.4755e+01,-2.4850e+00,
      6.1600e-01,-4.5590e+00,-3.3110e+00, 1.2360e+00, 1.6650e+00,-1.2550e+00,
     -1.4670e+00,-4.1010e+00,-4.0000e-01
    },
    {-2.3220e+00,-2.3400e-01,-2.6200e-01, 2.6200e-01,-1.1790e+00, 9.9600e-01,
     -1.1900e-01,-2.5800e-01,-1.2620e+00,-5.0000e-03,-5.0000e-02, 3.6000e-02,
     -8.8900e-01, 5.6000e-02,-4.0000e-01, 1.0900e-01, 8.5000e-02, 1.3220e+00,
      1.7300e-01,-1.5700e-01, 5.0000e-02,-5.9800e-01, 4.4200e-01,-4.3000e-02,
     -2.6300e+00,-3.3000e-02,-3.3900e-01,-1.7900e-01, 9.6400e-01,-5.2000e-02,
      7.0000e-03,-3.5500e-01,-1.7220e+00,-1.9000e-01,-3.5400e-01, 7.9000e-02,
      2.0320e+00,-7.7800e-01,-1.9000e-02, 8.6400e-01,-1.4710e+01,-2.5930e+00,
      6.6700e-01,-4.5350e+00,-3.2310e+00, 1.2410e+00, 1.7210e+00,-1.0770e+00,
     -1.3090e+00,-4.1270e+00,-4.0400e-01
    },
    {-2.3140e+00,-2.6000e-01,-2.5600e-01, 2.3800e-01,-1.1880e+00, 9.8900e-01,
     -1.1000e-01,-2.4900e-01,-1.2450e+00,-2.3000e-02,-7.1000e-02,-1.5000e-02,
     -8.6500e-01, 6.6000e-02,-3.8600e-01, 1.4000e-01, 4.9000e-02, 1.3560e+00,
      1.6500e-01,-1.4600e-01, 5.4000e-02,-5.9000e-01, 4.2800e-01,-7.8000e-02,
     -2.6040e+00,-3.1000e-02,-3.7800e-01,-1.6600e-01, 9.6400e-01,-5.0000e-02,
      4.2000e-02,-3.8900e-01,-1.7340e+00,-1.3800e-01,-3.8500e-01, 7.6000e-02,
      2.0470e+00,-7.8800e-01, 3.2000e-02, 8.5400e-01,-1.4658e+01,-2.5720e+00,
      6.3600e-01,-4.5240e+00,-3.2120e+00, 1.2670e+00, 1.6820e+00,-1.1590e+00,
     -1.3790e+00,-4.1530e+00,-4.1000e-01
    },
    {-2.2760e+00,-2.7100e-01,-2.7600e-01, 2.8200e-01,-1.1300e+00, 9.9100e-01,
     -1.1000e-01,-2.8000e-01,-1.2100e+00, 3.0000e-03,-9.1000e-02, 3.4000e-02,
     -8.9900e-01, 5.2000e-02,-3.9500e-01, 7.3000e-02, 1.1600e-01, 1.3580e+00,
      1.5300e-01,-1.4100e-01, 6.0000e-02,-5.9100e-01, 4.4300e-01,-6.6000e-02,
     -2.6280e+00,-1.1600e-01,-3.7500e-01,-1.9600e-01, 9.4300e-01,-2.1000e-02,
     -2.3000e-02,-2.9100e-01,-1.7460e+00,-2.5500e-01,-4.2000e-01, 1.5100e-01,
      2.0910e+00,-7.4300e-01,-1.8000e-02, 9.0500e-01,-1.4566e+01,-2.6250e+00,
      7.2900e-01,-4.4830e+00,-3.0980e+00, 1.1680e+00, 1.6390e+00,-1.1570e+00,
     -1.5090e+00,-4.2310e+00,-4.3700e-01
    },
    {-2.2980e+00,-2.3500e-01,-2.8500e-01, 3.0800e-01,-1.1460e+00, 1.0120e+00,
     -7.0000e-02,-3.0700e-01,-1.2350e+00, 3.0000e-02,-9.3000e-02, 4.3000e-02,
     -8.7800e-01, 2.6000e-02,-3.9700e-01, 7.1000e-02, 1.1200e-01, 1.3830e+00,
      1.4100e-01,-1.3900e-01, 8.0000e-02,-5.8200e-01, 4.5500e-01,-5.1000e-02,
     -2.5920e+00,-1.2500e-01,-3.7600e-01,-1.8200e-01, 9.1100e-01,-5.2000e-02,
     -3.0000e-03,-3.1400e-01,-1.6870e+00,-2.7400e-01,-3.6900e-01, 1.2000e-01,
      2.1420e+00,-7.1600e-01,-4.0000e-03, 9.1400e-01,-1.4463e+01,-2.5660e+00,
      7.1800e-01,-4.4080e+00,-3.0310e+00, 1.1320e+00, 1.6540e+00,-1.0670e+00,
     -1.3440e+00,-4.2700e+00,-4.7000e-01
    },
    {-2.2790e+00,-2.7400e-01,-3.2900e-01, 2.6400e-01,-1.1030e+00, 1.0000e+00,
     -1.9000e-02,-3.1700e-01,-1.3530e+00, 4.1000e-02,-1.2700e-01, 4.6000e-02,
     -8.9300e-01, 6.0000e-02,-3.8400e-01, 7.0000e-02, 2.0000e-01, 1.4760e+00,
      1.7800e-01,-1.0400e-01, 2.3000e-02,-5.4500e-01, 4.8600e-01,-6.1000e-02,
     -2.5530e+00,-1.1200e-01,-3.8300e-01,-2.3000e-02, 1.0320e+00,-1.1200e-01,
      1.7000e-02,-3.3200e-01,-1.6970e+00,-2.4300e-01,-2.9200e-01, 1.2200e-01,
      2.2190e+00,-8.0100e-01, 5.1000e-02, 1.0440e+00,-1.4463e+01,-2.6390e+00,
      7.1500e-01,-4.4260e+00,-2.9940e+00, 1.0390e+00, 1.5970e+00,-9.5100e-01,
     -1.2900e+00,-4.1900e+00,-4.6900e-01
    },
    {-2.2690e+00,-3.2800e-01,-3.2900e-01, 2.4700e-01,-1.1340e+00, 9.6500e-01,
      1.0000e-02,-2.9100e-01,-1.3400e+00, 5.1000e-02,-1.4100e-01, 2.4000e-02,
     -9.0400e-01, 2.6000e-02,-4.0700e-01, 7.0000e-02, 1.5000e-01, 1.4250e+00,
      1.2800e-01,-1.1400e-01, 5.3000e-02,-5.6600e-01, 4.2000e-01,-8.2000e-02,
     -2.5300e+00,-9.4000e-02,-4.4800e-01,-1.0500e-01, 1.0120e+00,-9.0000e-02,
     -2.0000e-03,-3.1300e-01,-1.6740e+00,-1.9600e-01,-2.9400e-01, 1.2000e-01,
      2.1870e+00,-7.9100e-01, 1.0200e-01, 1.1090e+00,-1.4406e+01,-2.5830e+00,
      6.4400e-01,-4.5220e+00,-3.0780e+00, 1.1530e+00, 1.6860e+00,-9.0700e-01,
     -1.3490e+00,-4.1010e+00,-4.8200e-01
    },
    {-2.2470e+00,-3.2900e-01,-3.3700e-01, 2.9900e-01,-1.1920e+00, 9.9800e-01,
     -2.0000e-02,-3.4700e-01,-1.3880e+00, 3.5000e-02,-1.7100e-01,-7.0000e-03,
     -9.6100e-01, 4.8000e-02,-4.1200e-01, 9.7000e-02, 1.2000e-01, 1.4140e+00,
      1.4500e-01,-1.3000e-01, 3.8000e-02,-5.8300e-01, 4.0900e-01,-5.3000e-02,
     -2.5370e+00,-6.6000e-02,-4.6400e-01,-1.1900e-01, 1.0340e+00,-9.0000e-02,
     -1.4000e-02,-3.2900e-01,-1.6750e+00,-1.7300e-01,-3.6100e-01, 9.3000e-02,
      2.1770e+00,-7.4100e-01, 6.7000e-02, 1.0970e+00,-1.4409e+01,-2.3790e+00,
      7.0900e-01,-4.5750e+00,-3.1070e+00, 1.1770e+00, 1.6290e+00,-9.5300e-01,
     -1.2030e+00,-3.9670e+00,-3.8800e-01
    },
    {-2.2070e+00,-2.9100e-01,-2.0700e-01, 3.3400e-01,-1.1290e+00, 9.7200e-01,
     -3.0000e-02,-3.1100e-01,-1.3890e+00, 2.1000e-02,-1.4300e-01,-1.4000e-02,
     -9.2100e-01, 5.3000e-02,-4.3800e-01, 8.8000e-02, 1.4600e-01, 1.4810e+00,
      1.9700e-01,-1.2600e-01, 2.2000e-02,-5.6900e-01, 4.5500e-01,-7.7000e-02,
     -2.5590e+00,-1.1700e-01,-4.4200e-01,-2.2600e-01, 1.0120e+00,-1.1200e-01,
     -3.0000e-02,-2.9200e-01,-1.6800e+00,-1.6000e-01,-3.2100e-01, 4.8000e-02,
      2.2280e+00,-7.5200e-01, 2.0100e-01, 1.1730e+00,-1.4446e+01,-2.4170e+00,
      6.3000e-01,-4.5600e+00,-3.0670e+00, 1.0950e+00, 1.5120e+00,-1.0920e+00,
     -1.1550e+00,-3.8640e+00,-4.4100e-01
    },
    {-2.1940e+00,-3.2000e-01,-1.9900e-01, 3.5300e-01,-1.1000e+00, 9.8200e-01,
      1.8000e-02,-2.5700e-01,-1.4540e+00, 2.7000e-02,-1.7800e-01, 9.0000e-03,
     -8.9700e-01, 4.8000e-02,-4.0600e-01, 7.2000e-02, 1.6200e-01, 1.4940e+00,
      1.3100e-01,-8.3000e-02, 1.8000e-02,-5.8000e-01, 4.3200e-01,-7.7000e-02,
     -2.5970e+00,-1.0400e-01,-4.6800e-01,-2.3900e-01, 1.1120e+00,-9.6000e-02,
     -5.3000e-02,-3.0600e-01,-1.6280e+00,-1.7200e-01,-3.3900e-01, 8.6000e-02,
      2.1970e+00,-6.6000e-01, 2.4600e-01, 1.1840e+00,-1.4598e+01,-2.3890e+00,
      6.7200e-01,-4.6540e+00,-3.2360e+00, 1.0850e+00, 1.4960e+00,-1.1280e+00,
     -1.2240e+00,-3.9660e+00,-4.6800e-01
    },
    {-2.1000e+00,-3.1800e-01,-2.6600e-01, 3.7300e-01,-9.6800e-01, 9.0500e-01,
      5.8000e-02,-2.2500e-01,-1.4950e+00, 2.8000e-02,-7.5000e-02,-1.4000e-02,
     -8.4500e-01, 5.1000e-02,-3.7200e-01, 8.3000e-02, 1.9200e-01, 1.5560e+00,
      1.3200e-01,-4.5000e-02, 6.0000e-03,-6.3100e-01, 4.4100e-01,-6.9000e-02,
     -2.5890e+00,-8.4000e-02,-4.5200e-01,-2.5000e-01, 1.1550e+00,-9.0000e-02,
      4.0000e-03,-3.0500e-01,-1.5850e+00,-1.5900e-01,-3.9100e-01, 3.7000e-02,
      2.1720e+00,-7.1100e-01, 1.9200e-01, 1.2170e+00,-1.4562e+01,-2.3070e+00,
      7.8800e-01,-4.6620e+00,-3.2900e+00, 1.0410e+00, 1.5310e+00,-1.2930e+00,
     -1.3150e+00,-4.0100e+00,-4.2400e-01
    },
    {-2.0530e+00,-1.7900e-01,-3.2400e-01, 3.6200e-01,-9.4700e-01, 9.0300e-01,
      6.0000e-02,-2.3700e-01,-1.4480e+00, 6.2000e-02,-2.2000e-02,-1.0900e-01,
     -8.7600e-01, 4.2000e-02,-3.8100e-01, 9.9000e-02, 1.9300e-01, 1.5460e+00,
      1.9800e-01,-1.3300e-01, 2.6000e-02,-5.4400e-01, 4.7400e-01,-4.7000e-02,
     -2.6290e+00,-4.1000e-02,-4.7100e-01,-2.0600e-01, 1.1340e+00,-1.4200e-01,
     -1.8000e-02,-2.6900e-01,-1.5680e+00,-1.3300e-01,-3.8000e-01, 5.5000e-02,
      2.1670e+00,-7.3900e-01, 2.7700e-01, 1.3330e+00,-1.4650e+01,-2.3520e+00,
      6.8000e-01,-4.5630e+00,-3.3370e+00, 9.9200e-01, 1.5240e+00,-1.3520e+00,
     -1.2290e+00,-4.0500e+00,-6.3200e-01
    },
    {-2.0920e+00,-1.0300e-01,-3.1900e-01, 2.6500e-01,-9.5200e-01, 8.9600e-01,
      1.1500e-01,-2.3600e-01,-1.4350e+00, 2.4000e-02,-0.0000e+00,-7.9000e-02,
     -9.0000e-01, 5.2000e-02,-3.6900e-01, 9.2000e-02, 2.2700e-01, 1.6100e+00,
      1.8900e-01,-1.1200e-01,-4.0000e-03,-5.0200e-01, 4.6300e-01,-7.5000e-02,
     -2.7030e+00,-9.9000e-02,-4.0900e-01,-2.7900e-01, 1.1800e+00,-9.0000e-02,
      1.2000e-02,-2.8700e-01,-1.5880e+00,-1.5900e-01,-4.6800e-01, 6.3000e-02,
      2.1700e+00,-7.8800e-01, 2.7800e-01, 1.3040e+00,-1.4686e+01,-2.4630e+00,
      7.3000e-01,-4.5270e+00,-3.4130e+00, 9.4100e-01, 1.5420e+00,-1.2960e+00,
     -1.3250e+00,-4.0220e+00,-5.0800e-01
    },
    {-2.1460e+00,-1.3600e-01,-2.4300e-01, 2.5700e-01,-8.5400e-01, 8.4300e-01,
      1.2600e-01,-3.1100e-01,-1.3820e+00, 1.0000e-02,-7.0000e-03,-1.1900e-01,
     -9.4900e-01, 9.6000e-02,-3.7500e-01, 3.8000e-02, 1.9200e-01, 1.5910e+00,
      2.4200e-01,-1.3300e-01, 3.8000e-02,-4.7900e-01, 3.9600e-01,-9.9000e-02,
     -2.6990e+00,-3.9000e-02,-4.0200e-01,-3.0400e-01, 1.2360e+00,-1.4100e-01,
     -6.0000e-03,-3.2500e-01,-1.5510e+00,-1.7700e-01,-4.2900e-01, 1.3200e-01,
      2.1990e+00,-8.3800e-01, 2.7800e-01, 1.2820e+00,-1.4565e+01,-2.4450e+00,
      8.0300e-01,-4.4700e+00,-3.3770e+00, 8.9400e-01, 1.6570e+00,-1.2380e+00,
     -1.3960e+00,-4.1300e+00,-5.3900e-01
    },
    {-2.1090e+00,-1.9000e-01,-2.3300e-01, 2.4500e-01,-8.6000e-01, 8.1200e-01,
      6.6000e-02,-2.9400e-01,-1.3650e+00,-2.1000e-02,-1.5000e-02,-9.7000e-02,
     -9.4600e-01, 6.0000e-02,-3.5700e-01, 7.7000e-02, 1.8000e-01, 1.6130e+00,
      2.8300e-01,-1.3500e-01, 5.6000e-02,-5.3100e-01, 4.7000e-01,-6.7000e-02,
     -2.6770e+00,-3.4000e-02,-4.1200e-01,-3.6500e-01, 1.2290e+00,-1.0500e-01,
     -1.0000e-03,-3.3500e-01,-1.5110e+00,-1.2600e-01,-4.3500e-01, 9.2000e-02,
      2.2430e+00,-8.1900e-01, 3.9100e-01, 1.2990e+00,-1.4551e+01,-2.4050e+00,
      7.9500e-01,-4.4890e+00,-3.3910e+00, 8.9200e-01, 1.5760e+00,-1.2700e+00,
     -1.3400e+00,-4.0130e+00,-4.7700e-01
    },
    {-2.0910e+00,-1.4500e-01,-2.3800e-01, 2.5900e-01,-1.0430e+00, 7.9200e-01,
      1.0400e-01,-1.8100e-01,-1.4160e+00, 2.8000e-02,-3.7000e-02,-1.3000e-02,
     -9.7400e-01, 5.0000e-02,-3.6200e-01, 4.0000e-02, 1.7400e-01, 1.6120e+00,
      1.8100e-01,-1.0200e-01, 7.0000e-02,-5.3400e-01, 4.6000e-01,-7.1000e-02,
     -2.6840e+00,-8.5000e-02,-4.3100e-01,-3.2200e-01, 1.1980e+00,-8.8000e-02,
      1.5000e-02,-2.8200e-01,-1.4140e+00,-1.4000e-01,-4.1200e-01, 1.5500e-01,
      2.2030e+00,-6.7800e-01, 2.4400e-01, 1.1860e+00,-1.4622e+01,-2.3120e+00,
      7.5200e-01,-4.4670e+00,-3.4740e+00, 1.0000e+00, 1.5250e+00,-1.3580e+00,
     -1.3900e+00,-4.1400e+00,-4.7400e-01
    },
    {-2.0620e+00,-1.1500e-01,-2.2900e-01, 2.3900e-01,-1.0460e+00, 7.8900e-01,
      9.3000e-02,-1.9800e-01,-1.4360e+00, 3.8000e-02,-4.7000e-02,-1.6000e-02,
     -9.4800e-01, 5.5000e-02,-3.6600e-01, 5.5000e-02, 1.9500e-01, 1.6310e+00,
      1.8900e-01,-1.3400e-01, 9.9000e-02,-5.1700e-01, 4.4000e-01,-5.4000e-02,
     -2.7930e+00,-1.1100e-01,-5.0300e-01,-3.1900e-01, 1.2240e+00,-9.0000e-02,
      8.0000e-03,-2.9700e-01,-1.4050e+00,-1.9100e-01,-3.8600e-01, 1.2200e-01,
      2.1410e+00,-6.7500e-01, 2.6300e-01, 1.2380e+00,-1.4620e+01,-2.2810e+00,
      8.2200e-01,-4.5400e+00,-3.3230e+00, 9.2600e-01, 1.5310e+00,-1.3300e+00,
     -1.4090e+00,-4.2560e+00,-4.7900e-01
    },
    {-2.0680e+00,-1.0800e-01,-1.0500e-01, 2.8200e-01,-1.0570e+00, 7.8200e-01,
      8.8000e-02,-1.8200e-01,-1.4850e+00, 2.5000e-02,-9.0000e-02,-2.8000e-02,
     -9.3500e-01, 6.4000e-02,-3.2800e-01, 2.8000e-02, 1.4300e-01, 1.6630e+00,
      2.3900e-01,-1.7700e-01, 8.6000e-02,-5.3900e-01, 4.2000e-01,-5.9000e-02,
     -2.8230e+00,-1.2000e-01,-5.4100e-01,-3.3400e-01, 1.1610e+00,-4.5000e-02,
      1.3000e-02,-2.9900e-01,-1.4320e+00,-1.0200e-01,-4.1600e-01, 1.5100e-01,
      2.1420e+00,-7.2200e-01, 2.4500e-01, 1.2310e+00,-1.4449e+01,-2.2200e+00,
      8.4000e-01,-4.4790e+00,-3.3250e+00, 1.0100e+00, 1.4820e+00,-1.2940e+00,
     -1.3780e+00,-4.2100e+00,-4.8500e-01
    },
    {-2.0030e+00,-9.2000e-02,-1.4200e-01, 2.0900e-01,-1.0130e+00, 8.6400e-01,
      7.1000e-02,-2.1800e-01,-1.5500e+00, 5.3000e-02,-4.8000e-02,-3.5000e-02,
     -9.0200e-01, 5.6000e-02,-3.6100e-01, 3.1000e-02, 1.8500e-01, 1.6990e+00,
      2.2700e-01,-2.0000e-01, 1.4500e-01,-5.7100e-01, 4.2700e-01,-5.4000e-02,
     -2.7780e+00,-1.3100e-01,-5.6600e-01,-3.5400e-01, 1.1100e+00,-7.3000e-02,
     -2.8000e-02,-2.6100e-01,-1.4120e+00,-1.2000e-01,-3.7800e-01, 1.1000e-01,
      2.1900e+00,-6.7500e-01, 2.8100e-01, 1.2290e+00,-1.4474e+01,-2.1270e+00,
      8.7800e-01,-4.5320e+00,-3.1690e+00, 9.2800e-01, 1.5120e+00,-1.2830e+00,
     -1.3250e+00,-4.3750e+00,-5.5100e-01
    },
    {-1.9740e+00,-1.3400e-01,-1.8200e-01, 2.7300e-01,-1.0110e+00, 8.9800e-01,
      6.3000e-02,-2.5000e-01,-1.5150e+00,-5.0000e-03, 1.0000e-02,-6.1000e-02,
     -7.4100e-01, 7.0000e-02,-3.2200e-01, 2.2000e-02, 1.2900e-01, 1.6320e+00,
      2.3900e-01,-6.9000e-02, 1.1400e-01,-5.3700e-01, 3.6000e-01,-8.4000e-02,
     -2.7820e+00,-2.4300e-01,-4.5600e-01,-4.2000e-01, 1.0340e+00,-7.3000e-02,
      1.1000e-02,-3.0300e-01,-1.4580e+00,-1.2800e-01,-4.1300e-01, 1.5500e-01,
      2.1640e+00,-6.3700e-01, 1.4700e-01, 1.2140e+00,-1.4458e+01,-2.1430e+00,
      8.4500e-01,-4.6670e+00,-3.2380e+00, 9.3500e-01, 1.5030e+00,-1.2160e+00,
     -1.3100e+00,-4.5040e+00,-5.3600e-01
    },
    {-1.9730e+00,-1.2100e-01,-1.1600e-01, 3.0400e-01,-1.0520e+00, 8.8600e-01,
      1.1900e-01,-2.6200e-01,-1.4930e+00,-3.2000e-02, 3.0000e-03,-6.9000e-02,
     -7.3800e-01, 5.5000e-02,-3.2000e-01, 5.9000e-02, 1.1300e-01, 1.6030e+00,
      1.9700e-01,-3.7000e-02, 7.5000e-02,-4.7000e-01, 3.9500e-01,-6.0000e-02,
     -2.7440e+00,-1.8900e-01,-4.4200e-01,-4.2600e-01, 1.0830e+00,-1.0100e-01,
      3.5000e-02,-3.3300e-01,-1.4390e+00,-1.3300e-01,-3.9600e-01, 1.1200e-01,
      2.1210e+00,-6.3800e-01, 2.1100e-01, 1.2100e+00,-1.4393e+01,-2.2010e+00,
      7.1500e-01,-4.5960e+00,-3.3050e+00, 8.4800e-01, 1.5920e+00,-1.1450e+00,
     -1.2890e+00,-4.4980e+00,-5.7800e-01
    },
    {-1.9710e+00,-1.7000e-01,-1.9900e-01, 2.8400e-01,-1.0130e+00, 9.2500e-01,
      1.0100e-01,-2.0700e-01,-1.5070e+00,-1.0000e-02, 7.0000e-03,-2.3000e-02,
     -7.3600e-01, 7.8000e-02,-3.1300e-01, 1.6000e-02, 1.0100e-01, 1.6030e+00,
      2.0900e-01,-7.1000e-02, 7.2000e-02,-5.3800e-01, 4.0400e-01,-6.6000e-02,
     -2.7370e+00,-1.4300e-01,-4.2100e-01,-4.0100e-01, 1.0770e+00,-8.4000e-02,
      5.9000e-02,-2.4000e-01,-1.4330e+00,-1.2500e-01,-4.1500e-01, 1.2100e-01,
      2.0600e+00,-6.2100e-01, 1.8200e-01, 1.1500e+00,-1.4454e+01,-2.1500e+00,
      7.2900e-01,-4.5810e+00,-3.3230e+00, 9.1200e-01, 1.3990e+00,-1.1920e+00,
     -1.3120e+00,-4.5880e+00,-5.0400e-01
    },
    {-1.9920e+00,-2.2500e-01,-1.9400e-01, 2.6800e-01,-9.3300e-01, 9.6800e-01,
      3.7000e-02,-1.6400e-01,-1.5610e+00, 2.5000e-02, 0.0000e+00,-5.4000e-02,
     -8.0800e-01, 5.6000e-02,-2.9200e-01,-1.2000e-02, 2.0400e-01, 1.6410e+00,
      2.3200e-01,-7.1000e-02, 4.9000e-02,-5.8300e-01, 4.2800e-01,-7.4000e-02,
     -2.6670e+00,-1.4000e-01,-4.6500e-01,-3.9400e-01, 1.0580e+00,-1.0000e-01,
     -4.4000e-02,-1.7800e-01,-1.4310e+00,-5.5000e-02,-5.1900e-01, 1.5300e-01,
      2.0150e+00,-6.6800e-01, 1.8300e-01, 1.2940e+00,-1.4456e+01,-2.0580e+00,
      8.1000e-01,-4.5470e+00,-3.3150e+00, 9.0700e-01, 1.4240e+00,-1.2370e+00,
     -1.2120e+00,-4.3900e+00,-5.4900e-01
    },
    {-2.0320e+00,-1.9100e-01,-1.8100e-01, 2.4600e-01,-9.4700e-01, 9.5500e-01,
      6.3000e-02,-1.5600e-01,-1.5170e+00, 4.9000e-02, 1.6000e-02,-6.3000e-02,
     -8.7300e-01, 4.1000e-02,-2.8500e-01, 1.6000e-02, 2.7100e-01, 1.6260e+00,
      2.4200e-01,-8.1000e-02, 4.2000e-02,-4.9500e-01, 4.4600e-01,-1.1300e-01,
     -2.6270e+00,-1.1600e-01,-3.9800e-01,-3.7500e-01, 1.0480e+00,-1.2000e-01,
     -5.0000e-02,-2.0500e-01,-1.4370e+00,-2.6000e-02,-4.9600e-01, 9.6000e-02,
      2.0440e+00,-6.8200e-01, 2.1500e-01, 1.3170e+00,-1.4579e+01,-2.0570e+00,
      7.6100e-01,-4.5060e+00,-3.3060e+00, 9.0500e-01, 1.5240e+00,-1.2230e+00,
     -1.2710e+00,-4.4240e+00,-5.1800e-01
    },
    {-2.0480e+00,-1.2400e-01,-1.8000e-01, 2.4100e-01,-9.5800e-01, 9.2400e-01,
      1.3200e-01,-1.8000e-01,-1.5240e+00, 3.6000e-02, 9.0000e-03,-3.6000e-02,
     -8.2900e-01, 5.7000e-02,-3.0000e-01,-4.3000e-02, 2.4000e-01, 1.6120e+00,
      2.5200e-01,-7.5000e-02, 5.4000e-02,-5.6300e-01, 4.5800e-01,-1.4100e-01,
     -2.5990e+00,-3.6000e-02,-4.5300e-01,-3.2100e-01, 1.0720e+00,-1.2100e-01,
     -2.8000e-02,-2.4500e-01,-1.5470e+00,-3.0000e-03,-4.9700e-01, 1.5800e-01,
      2.0180e+00,-7.2000e-01, 2.1700e-01, 1.3320e+00,-1.4545e+01,-1.9660e+00,
      7.7900e-01,-4.6140e+00,-3.3630e+00, 9.3800e-01, 1.4100e+00,-1.1380e+00,
     -1.2180e+00,-4.5020e+00,-6.2300e-01
    },
    {-1.9760e+00,-8.9000e-02,-2.1900e-01, 2.5100e-01,-1.0100e+00, 9.7300e-01,
      1.4600e-01,-1.5800e-01,-1.4900e+00, 1.7000e-02, 2.3000e-02,-3.1000e-02,
     -8.0900e-01, 2.5000e-02,-3.0200e-01, 3.0000e-03, 2.6400e-01, 1.6110e+00,
      2.4300e-01,-1.0500e-01, 6.5000e-02,-5.4100e-01, 4.0700e-01,-1.2000e-01,
     -2.5530e+00,-1.4000e-02,-4.8600e-01,-3.7900e-01, 1.1090e+00,-1.1900e-01,
     -2.6000e-02,-3.0500e-01,-1.6030e+00, 4.0000e-02,-4.5300e-01, 1.4900e-01,
      2.0260e+00,-8.2000e-01, 2.0700e-01, 1.3250e+00,-1.4611e+01,-1.9210e+00,
      7.5300e-01,-4.6540e+00,-3.5130e+00, 9.7000e-01, 1.5530e+00,-1.0810e+00,
     -1.2670e+00,-4.4970e+00,-5.4500e-01
    },
    {-1.9650e+00,-1.2200e-01,-2.2900e-01, 2.9700e-01,-9.8200e-01, 9.9500e-01,
      1.2600e-01,-1.3100e-01,-1.4100e+00,-3.6000e-02, 1.0000e-02,-3.5000e-02,
     -8.3500e-01, 5.2000e-02,-3.1700e-01, 3.1000e-02, 2.9500e-01, 1.6180e+00,
      2.8300e-01,-1.2600e-01, 3.0000e-02,-5.5800e-01, 3.9600e-01,-1.0400e-01,
     -2.5710e+00, 2.9000e-02,-4.6000e-01,-3.5300e-01, 1.1140e+00,-7.5000e-02,
      9.0000e-03,-3.3300e-01,-1.5600e+00,-3.0000e-03,-4.3500e-01, 1.1700e-01,
      1.9540e+00,-7.6500e-01, 2.2400e-01, 1.2450e+00,-1.4637e+01,-1.8360e+00,
      7.9300e-01,-4.6170e+00,-3.5350e+00, 9.6700e-01, 1.4780e+00,-1.1890e+00,
     -1.2500e+00,-4.5060e+00,-4.6000e-01
    },
    {-1.8010e+00,-1.0400e-01,-2.0700e-01, 1.4400e-01,-1.0440e+00, 8.6900e-01,
      1.4000e-01,-2.0400e-01,-1.3050e+00,-1.3000e-02, 2.2000e-02,-1.6000e-02,
     -9.2400e-01, 3.9000e-02,-3.5800e-01, 6.6000e-02, 2.2800e-01, 1.7500e+00,
      2.6800e-01,-4.5000e-02, 7.0000e-02,-5.1100e-01, 4.4800e-01,-7.9000e-02,
     -2.4980e+00,-1.5000e-02,-4.1000e-01,-4.0200e-01, 1.1150e+00,-8.5000e-02,
     -4.1000e-02,-2.5200e-01,-1.5710e+00,-6.8000e-02,-4.4900e-01, 7.1000e-02,
      1.9060e+00,-7.1700e-01, 2.6700e-01, 1.2840e+00,-1.4575e+01,-1.7330e+00,
      7.8900e-01,-4.3800e+00,-3.5350e+00, 8.8000e-01, 1.4920e+00,-1.2210e+00,
     -1.1740e+00,-4.6340e+00,-3.6500e-01
    },
    {-1.8240e+00,-7.8000e-02,-2.7800e-01, 2.6600e-01,-9.4000e-01, 9.8700e-01,
      8.9000e-02,-2.8600e-01,-1.3310e+00, 2.0000e-03, 1.8000e-02,-5.5000e-02,
     -8.9100e-01, 3.4000e-02,-3.4400e-01, 5.2000e-02, 2.1900e-01, 1.6800e+00,
      2.9800e-01,-9.4000e-02, 6.9000e-02,-4.9000e-01, 3.8600e-01,-5.2000e-02,
     -2.5610e+00,-3.0000e-03,-4.1000e-01,-3.5700e-01, 1.1510e+00,-1.0200e-01,
     -3.4000e-02,-3.0400e-01,-1.5970e+00,-1.5000e-02,-4.0600e-01, 1.0600e-01,
      1.9240e+00,-7.1900e-01, 2.4700e-01, 1.2660e+00,-1.4547e+01,-1.5920e+00,
      8.6200e-01,-4.4490e+00,-3.6030e+00, 8.4300e-01, 1.5920e+00,-1.2660e+00,
     -1.2390e+00,-4.6930e+00,-4.1600e-01
    },
    {-1.8730e+00,-8.0000e-02,-3.1900e-01, 3.0200e-01,-9.4200e-01, 1.0110e+00,
      1.2900e-01,-2.6200e-01,-1.3100e+00,-6.0000e-03, 2.0000e-02,-4.8000e-02,
     -9.1200e-01, 3.2000e-02,-3.5500e-01, 7.4000e-02, 2.4600e-01, 1.7280e+00,
      2.5800e-01,-1.2500e-01, 4.7000e-02,-5.5400e-01, 4.3900e-01,-3.6000e-02,
     -2.5770e+00,-2.0000e-03,-4.6400e-01,-3.9600e-01, 1.1180e+00,-8.8000e-02,
     -6.0000e-02,-2.9500e-01,-1.6070e+00,-2.9000e-02,-4.4500e-01, 6.7000e-02,
      1.8870e+00,-7.2200e-01, 2.9600e-01, 1.2340e+00,-1.4463e+01,-1.4340e+00,
      8.4100e-01,-4.3670e+00,-3.6270e+00, 8.1600e-01, 1.4650e+00,-1.3380e+00,
     -1.1420e+00,-4.6480e+00,-4.2900e-01
    },
    {-1.9070e+00,-1.2500e-01,-3.5000e-01, 3.0000e-01,-9.1200e-01, 8.5300e-01,
      9.4000e-02,-2.6900e-01,-1.3390e+00, 1.9000e-02, 1.0000e-02, 3.2000e-02,
     -8.7200e-01, 4.3000e-02,-3.5300e-01, 2.6000e-02, 2.7300e-01, 1.7040e+00,
      2.6100e-01,-1.3600e-01, 7.5000e-02,-5.2100e-01, 4.6000e-01,-4.3000e-02,
     -2.6740e+00,-2.5000e-02,-4.6100e-01,-3.7100e-01, 1.2010e+00,-9.1000e-02,
     -8.8000e-02,-3.3100e-01,-1.7160e+00,-1.2000e-01,-4.3700e-01, 7.9000e-02,
      1.9510e+00,-7.6400e-01, 2.3300e-01, 1.2300e+00,-1.4478e+01,-1.4840e+00,
      7.9400e-01,-4.3790e+00,-3.5000e+00, 8.6500e-01, 1.4180e+00,-1.4550e+00,
     -1.2330e+00,-4.6100e+00,-5.0200e-01
    },
    {-1.9820e+00,-1.3200e-01,-3.2700e-01, 2.3800e-01,-8.2800e-01, 8.0300e-01,
      1.4000e-02,-1.5300e-01,-1.3450e+00, 2.1000e-02, 2.0000e-03, 1.6000e-02,
     -8.5700e-01, 3.9000e-02,-3.8500e-01, 7.0000e-02, 2.1100e-01, 1.7060e+00,
      2.2300e-01,-1.1100e-01, 1.0000e-02,-5.7800e-01, 4.8700e-01,-4.2000e-02,
     -2.7250e+00, 2.7000e-02,-3.2100e-01,-4.0500e-01, 1.2230e+00,-1.0000e-01,
     -7.5000e-02,-2.8300e-01,-1.7420e+00,-2.0500e-01,-3.6800e-01, 1.0800e-01,
      2.0510e+00,-7.3800e-01, 1.3700e-01, 1.2800e+00,-1.4354e+01,-1.5930e+00,
      8.2100e-01,-4.3890e+00,-3.5340e+00, 9.3000e-01, 1.5010e+00,-1.3750e+00,
     -1.3100e+00,-4.5230e+00,-4.1800e-01
    },
    {-1.9790e+00,-1.6500e-01,-2.9700e-01, 2.5600e-01,-8.0000e-01, 8.3600e-01,
      5.3000e-02,-1.9900e-01,-1.2490e+00,-6.0000e-03,-4.4000e-02, 3.3000e-02,
     -8.8700e-01, 4.8000e-02,-4.0300e-01, 7.8000e-02, 2.2100e-01, 1.7730e+00,
      2.4200e-01,-7.7000e-02,-4.2000e-02,-5.5500e-01, 5.1200e-01,-5.1000e-02,
     -2.6880e+00,-2.5000e-02,-3.4200e-01,-3.1200e-01, 1.2620e+00,-7.8000e-02,
     -4.0000e-02,-3.2400e-01,-1.8550e+00,-2.1400e-01,-3.2800e-01, 8.6000e-02,
      2.0740e+00,-6.7200e-01, 1.9000e-01, 1.2120e+00,-1.4395e+01,-1.5720e+00,
      7.8400e-01,-4.3880e+00,-3.6180e+00, 8.1200e-01, 1.3220e+00,-1.4240e+00,
     -1.3540e+00,-4.5250e+00,-3.7400e-01
    },
    {-1.9590e+00,-2.3700e-01,-3.4800e-01, 2.3900e-01,-7.8900e-01, 8.2100e-01,
      4.0000e-02,-1.9800e-01,-1.2390e+00,-2.0000e-03, 2.0000e-03, 4.2000e-02,
     -8.7700e-01, 4.4000e-02,-4.0400e-01, 9.3000e-02, 2.6100e-01, 1.7830e+00,
      2.3800e-01,-7.8000e-02,-7.4000e-02,-5.5600e-01, 4.9000e-01,-6.8000e-02,
     -2.7270e+00,-7.2000e-02,-3.5200e-01,-2.6900e-01, 1.2750e+00,-7.1000e-02,
     -8.1000e-02,-3.6500e-01,-1.7940e+00,-1.7100e-01,-3.7000e-01,-4.0000e-03,
      2.1000e+00,-6.6200e-01, 2.0400e-01, 1.2350e+00,-1.4370e+01,-1.6970e+00,
      8.1300e-01,-4.4540e+00,-3.6060e+00, 8.3100e-01, 1.3430e+00,-1.2640e+00,
     -1.3550e+00,-4.6000e+00,-3.7400e-01
    },
    {-2.0060e+00,-2.3900e-01,-2.6100e-01, 2.1300e-01,-7.6000e-01, 7.9800e-01,
      1.2100e-01,-1.7200e-01,-1.1720e+00,-1.7000e-02,-9.0000e-03, 4.0000e-03,
     -8.2500e-01, 6.3000e-02,-4.1500e-01, 9.7000e-02, 3.2400e-01, 1.7300e+00,
      2.4900e-01,-1.0000e-02,-6.4000e-02,-6.4700e-01, 4.9900e-01,-1.6400e-01,
     -2.7490e+00,-3.7000e-02,-3.3100e-01,-2.3200e-01, 1.1450e+00,-4.6000e-02,
     -4.2000e-02,-3.2400e-01,-1.8130e+00,-1.4400e-01,-4.0700e-01,-7.0000e-02,
      2.1050e+00,-7.1700e-01, 2.5400e-01, 1.1990e+00,-1.4418e+01,-1.5870e+00,
      8.4700e-01,-4.4450e+00,-3.5820e+00, 8.5500e-01, 1.1830e+00,-1.3740e+00,
     -1.1900e+00,-4.6830e+00,-4.4500e-01
    },
    {-1.9300e+00,-2.5700e-01,-2.3800e-01, 2.5500e-01,-7.5600e-01, 8.8400e-01,
      1.6400e-01,-1.2200e-01,-1.2310e+00, 4.6000e-02,-1.3000e-02, 1.6000e-02,
     -8.0700e-01, 3.8000e-02,-3.5500e-01, 1.1800e-01, 3.3700e-01, 1.7090e+00,
      1.9900e-01,-6.2000e-02,-1.6000e-02,-5.9400e-01, 5.7100e-01,-1.0100e-01,
     -2.7390e+00,-7.2000e-02,-3.4200e-01,-2.6400e-01, 1.2270e+00,-1.5300e-01,
     -2.0000e-03,-3.5300e-01,-1.7720e+00,-4.2000e-02,-3.8500e-01,-9.4000e-02,
      2.1150e+00,-7.8900e-01, 2.6800e-01, 1.1540e+00,-1.4323e+01,-1.5870e+00,
      7.8200e-01,-4.3200e+00,-3.5300e+00, 8.3300e-01, 1.2110e+00,-1.5370e+00,
     -1.2550e+00,-4.5580e+00,-4.7500e-01
    },
    {-1.9530e+00,-2.5300e-01,-1.7300e-01, 2.8200e-01,-7.4800e-01, 8.5700e-01,
      1.1500e-01,-1.8200e-01,-1.1520e+00,-1.1000e-02,-2.4000e-02, 2.4000e-02,
     -7.8600e-01, 5.1000e-02,-3.6100e-01, 1.1600e-01, 3.0600e-01, 1.7510e+00,
      2.6700e-01, 7.0000e-03, 1.5000e-02,-5.7200e-01, 5.0800e-01,-1.2100e-01,
     -2.6800e+00,-2.0000e-03,-3.2400e-01,-2.4600e-01, 1.1120e+00,-8.6000e-02,
     -3.5000e-02,-3.3300e-01,-1.7960e+00,-8.9000e-02,-3.5700e-01,-1.3500e-01,
      2.1280e+00,-7.4700e-01, 2.8300e-01, 1.1880e+00,-1.4311e+01,-1.6460e+00,
      8.2200e-01,-4.3780e+00,-3.2910e+00, 7.8600e-01, 1.2690e+00,-1.5180e+00,
     -1.2290e+00,-4.6270e+00,-3.8200e-01
    },
    {-2.0130e+00,-2.3100e-01,-2.8600e-01, 2.7500e-01,-7.1100e-01, 8.7400e-01,
      1.7000e-01,-1.7200e-01,-1.1420e+00,-5.6000e-02,-1.0000e-02, 5.0000e-02,
     -7.6700e-01, 3.9000e-02,-3.9000e-01, 1.2600e-01, 3.9100e-01, 1.7520e+00,
      1.9900e-01, 4.0000e-03,-1.7000e-02,-5.2600e-01, 4.8500e-01,-1.2400e-01,
     -2.7000e+00,-3.1000e-02,-3.8000e-01,-2.5400e-01, 1.0720e+00,-4.7000e-02,
     -1.2000e-02,-3.7500e-01,-1.8390e+00,-9.7000e-02,-3.0500e-01,-9.2000e-02,
      2.1860e+00,-7.8600e-01, 2.5500e-01, 1.1330e+00,-1.4296e+01,-1.6440e+00,
      7.7900e-01,-4.2740e+00,-3.2150e+00, 7.3200e-01, 1.3200e+00,-1.6580e+00,
     -1.4000e+00,-4.6710e+00,-3.4400e-01
    },
    {-2.0110e+00,-2.1800e-01,-3.0500e-01, 2.8500e-01,-7.5200e-01, 8.6700e-01,
      1.0300e-01,-1.5900e-01,-1.1700e+00,-3.8000e-02,-4.0000e-02, 7.2000e-02,
     -8.0200e-01, 2.6000e-02,-4.0800e-01, 1.1500e-01, 4.2700e-01, 1.7330e+00,
      1.9100e-01, 1.0000e-03, 1.1000e-02,-4.8200e-01, 4.7300e-01,-1.6500e-01,
     -2.6680e+00,-7.1000e-02,-4.5300e-01,-2.8100e-01, 1.0160e+00,-5.4000e-02,
     -1.6000e-02,-3.8000e-01,-1.8510e+00,-6.6000e-02,-3.3600e-01,-5.9000e-02,
      2.1810e+00,-7.8200e-01, 2.1800e-01, 1.1160e+00,-1.4471e+01,-1.6360e+00,
      7.4800e-01,-4.3870e+00,-3.1780e+00, 7.6000e-01, 1.3730e+00,-1.6800e+00,
     -1.4880e+00,-4.6630e+00,-3.7300e-01
    },
    {-1.9930e+00,-2.8400e-01,-4.2800e-01, 2.9300e-01,-7.6000e-01, 9.2400e-01,
      1.0500e-01,-8.5000e-02,-1.2280e+00,-1.7000e-02,-7.7000e-02, 5.3000e-02,
     -7.9500e-01, 4.5000e-02,-4.2500e-01, 1.0300e-01, 4.2800e-01, 1.7890e+00,
      1.7600e-01,-0.0000e+00,-7.7000e-02,-4.3700e-01, 4.3200e-01,-1.8500e-01,
     -2.6490e+00,-1.4400e-01,-5.2100e-01,-3.7200e-01, 1.0150e+00,-6.6000e-02,
      2.0000e-02,-3.3700e-01,-1.9490e+00,-1.5300e-01,-4.2600e-01,-1.0000e-02,
      2.2140e+00,-7.4600e-01, 2.3300e-01, 9.7900e-01,-1.4593e+01,-1.8010e+00,
      7.1100e-01,-4.4370e+00,-3.2020e+00, 7.5000e-01, 1.3590e+00,-1.6760e+00,
     -1.4150e+00,-4.5710e+00,-4.4800e-01
    },
    {-2.0420e+00,-2.9900e-01,-3.7300e-01, 2.6600e-01,-8.0200e-01, 9.2900e-01,
      9.2000e-02,-2.5000e-02,-1.1890e+00,-7.0000e-03,-6.8000e-02, 6.8000e-02,
     -8.2500e-01, 4.1000e-02,-4.1100e-01, 8.4000e-02, 4.2900e-01, 1.7630e+00,
      2.1200e-01,-6.2000e-02,-3.6000e-02,-4.5000e-01, 4.5500e-01,-1.6100e-01,
     -2.6280e+00,-2.0000e-01,-5.5500e-01,-3.5600e-01, 1.0410e+00,-1.1100e-01,
      9.0000e-03,-2.9400e-01,-1.8790e+00,-9.6000e-02,-3.7500e-01,-3.4000e-02,
      2.2560e+00,-7.7900e-01, 2.6700e-01, 1.0300e+00,-1.4598e+01,-1.8350e+00,
      6.8900e-01,-4.4290e+00,-3.2120e+00, 8.1500e-01, 1.4000e+00,-1.5040e+00,
     -1.2060e+00,-4.4560e+00,-3.8600e-01
    },
    {-1.9510e+00,-3.0000e-01,-2.4600e-01, 2.8100e-01,-9.4900e-01, 9.1200e-01,
      1.6100e-01,-1.5000e-01,-1.2250e+00,-3.8000e-02,-7.0000e-02, 1.3000e-02,
     -8.2100e-01, 2.5000e-02,-4.3500e-01, 1.3400e-01, 3.8400e-01, 1.7220e+00,
      2.8500e-01, 4.3000e-02, 3.0000e-03,-4.8200e-01, 4.6100e-01,-1.2900e-01,
     -2.6370e+00,-1.9700e-01,-4.8000e-01,-3.4100e-01, 1.0670e+00,-7.3000e-02,
      9.0000e-03,-3.9600e-01,-1.8960e+00,-4.1000e-02,-3.4300e-01, 3.3000e-02,
      2.2140e+00,-7.9300e-01, 2.0300e-01, 1.1460e+00,-1.4727e+01,-1.8340e+00,
      6.4200e-01,-4.4110e+00,-3.0950e+00, 8.0200e-01, 1.2590e+00,-1.4970e+00,
     -1.1070e+00,-4.6030e+00,-3.5000e-01
    },
    {-1.9970e+00,-3.5600e-01,-2.5800e-01, 2.6500e-01,-9.5400e-01, 9.6900e-01,
      1.7600e-01,-1.4700e-01,-1.2990e+00,-9.0000e-03,-5.0000e-02, 4.0000e-02,
     -7.9600e-01, 4.0000e-02,-4.5800e-01, 1.1500e-01, 2.9300e-01, 1.6880e+00,
      2.3300e-01,-3.5000e-02, 2.7000e-02,-4.9300e-01, 4.5500e-01,-1.9700e-01,
     -2.5980e+00,-1.8200e-01,-4.6500e-01,-4.0600e-01, 1.0480e+00,-7.9000e-02,
      4.5000e-02,-4.0300e-01,-2.0260e+00,-6.8000e-02,-3.1700e-01,-5.0000e-02,
      2.1780e+00,-9.0100e-01, 2.2100e-01, 1.2430e+00,-1.4741e+01,-1.8170e+00,
      7.1400e-01,-4.5730e+00,-3.1180e+00, 8.5600e-01, 1.4110e+00,-1.6420e+00,
     -1.3340e+00,-4.3980e+00,-3.3600e-01
    },
    {-1.9920e+00,-3.9600e-01,-1.9700e-01, 2.9700e-01,-1.0480e+00, 9.0100e-01,
      1.2500e-01,-1.8900e-01,-1.2660e+00,-6.0000e-03, 7.0000e-03, 1.9000e-02,
     -8.1900e-01, 2.1000e-02,-4.4600e-01, 1.5500e-01, 3.3700e-01, 1.7690e+00,
      2.9700e-01,-4.6000e-02,-4.0000e-03,-5.3400e-01, 4.8000e-01,-9.5000e-02,
     -2.6050e+00,-2.5800e-01,-4.7500e-01,-3.4900e-01, 1.0290e+00,-6.5000e-02,
     -4.4000e-02,-3.5600e-01,-1.9490e+00,-3.0000e-02,-2.9600e-01, 6.0000e-03,
      2.1920e+00,-8.9400e-01, 1.1600e-01, 1.1950e+00,-1.4730e+01,-1.9450e+00,
      7.3700e-01,-4.4870e+00,-3.1650e+00, 9.1600e-01, 1.4220e+00,-1.6540e+00,
     -1.3140e+00,-4.3180e+00,-3.1900e-01
    },
    {-2.0410e+00,-3.4200e-01,-1.4900e-01, 2.5900e-01,-1.0790e+00, 1.0110e+00,
      1.2900e-01,-2.1900e-01,-1.2990e+00,-1.1000e-02,-1.9000e-02, 6.5000e-02,
     -7.5400e-01, 2.0000e-02,-4.1800e-01, 9.7000e-02, 3.4100e-01, 1.8840e+00,
      2.2500e-01,-4.6000e-02,-4.1000e-02,-5.1800e-01, 4.8000e-01,-8.5000e-02,
     -2.5710e+00,-3.2600e-01,-5.1100e-01,-3.5800e-01, 1.0150e+00,-6.7000e-02,
      3.0000e-03,-3.5600e-01,-1.9500e+00,-2.1000e-02,-2.7800e-01, 1.1300e-01,
      2.1700e+00,-8.8800e-01, 3.8000e-02, 1.2920e+00,-1.4728e+01,-2.1220e+00,
      6.4900e-01,-4.5070e+00,-3.1620e+00, 8.4900e-01, 1.4060e+00,-1.6160e+00,
     -1.3870e+00,-4.2880e+00,-3.5200e-01
    },
    {-2.1070e+00,-3.4800e-01,-1.1700e-01, 2.9500e-01,-1.0150e+00, 1.0540e+00,
      1.1900e-01,-2.3700e-01,-1.3070e+00, 4.2000e-02,-7.5000e-02,-3.6000e-02,
     -7.2500e-01, 1.2000e-02,-4.3300e-01, 9.6000e-02, 3.7200e-01, 1.8710e+00,
      1.8900e-01,-3.7000e-02,-5.0000e-02,-5.7800e-01, 4.9800e-01,-1.4200e-01,
     -2.6030e+00,-3.0100e-01,-4.7200e-01,-3.7200e-01, 9.4700e-01,-9.3000e-02,
     -2.3000e-02,-3.2400e-01,-1.9290e+00,-1.0800e-01,-2.0200e-01, 1.0600e-01,
      2.1020e+00,-8.0500e-01, 1.0900e-01, 1.2940e+00,-1.4771e+01,-2.1780e+00,
      5.7500e-01,-4.3560e+00,-3.1900e+00, 8.4000e-01, 1.2630e+00,-1.5090e+00,
     -1.0980e+00,-4.3130e+00,-4.5000e-01
    },
    {-2.0950e+00,-2.9700e-01,-1.4500e-01, 2.5900e-01,-1.0260e+00, 1.0530e+00,
      8.8000e-02,-1.3300e-01,-1.3610e+00,-2.1000e-02,-2.7000e-02, 7.7000e-02,
     -7.7500e-01, 1.9000e-02,-4.8100e-01, 9.7000e-02, 3.9500e-01, 1.8800e+00,
      2.1000e-01,-1.3500e-01,-1.0400e-01,-5.7000e-01, 4.5600e-01,-7.0000e-02,
     -2.5970e+00,-3.2800e-01,-4.6700e-01,-3.5500e-01, 9.7000e-01,-2.3000e-02,
     -7.0000e-03,-4.3200e-01,-1.9000e+00,-2.5000e-02,-2.9400e-01, 8.6000e-02,
      2.1250e+00,-8.6300e-01, 7.9000e-02, 1.3020e+00,-1.4831e+01,-2.1670e+00,
      6.9300e-01,-4.5120e+00,-3.1530e+00, 8.9600e-01, 1.3650e+00,-1.3550e+00,
     -1.0470e+00,-4.3150e+00,-3.6600e-01
    },
    {-2.1650e+00,-3.4300e-01,-2.1500e-01, 1.8600e-01,-1.0030e+00, 1.0640e+00,
      1.3200e-01,-1.0500e-01,-1.2950e+00,-4.1000e-02, 4.0000e-03, 3.6000e-02,
     -7.0800e-01,-4.0000e-03,-4.3400e-01, 1.2300e-01, 4.2500e-01, 1.8680e+00,
      1.6600e-01,-9.7000e-02,-1.7000e-02,-5.7000e-01, 4.3900e-01,-3.4000e-02,
     -2.5530e+00,-2.6200e-01,-4.8400e-01,-4.2900e-01, 1.1750e+00,-1.0300e-01,
     -5.5000e-02,-3.4600e-01,-1.9350e+00, 4.1000e-02,-2.7700e-01, 6.0000e-02,
      2.0840e+00,-8.8900e-01, 3.4000e-02, 1.2980e+00,-1.4586e+01,-2.0680e+00,
      7.9000e-01,-4.4410e+00,-3.0160e+00, 8.6300e-01, 1.5590e+00,-1.3340e+00,
     -9.8100e-01,-4.3700e+00,-2.4800e-01
    },
    {-2.1000e+00,-3.3700e-01,-1.4500e-01, 2.0200e-01,-9.9400e-01, 9.8500e-01,
      1.4000e-01,-1.2200e-01,-1.3590e+00, 1.8000e-02,-3.0000e-03, 1.3000e-02,
     -7.5000e-01,-5.0000e-03,-4.6700e-01, 1.3700e-01, 4.0100e-01, 1.8120e+00,
      1.9400e-01,-8.7000e-02,-9.9000e-02,-5.6000e-01, 4.9000e-01,-5.6000e-02,
     -2.5260e+00,-2.4900e-01,-4.4000e-01,-3.5500e-01, 1.1090e+00,-8.3000e-02,
     -6.9000e-02,-3.6500e-01,-1.9310e+00, 5.6000e-02,-2.2600e-01, 2.4000e-02,
      2.2130e+00,-8.9500e-01, 9.1000e-02, 1.3380e+00,-1.4510e+01,-2.0520e+00,
      7.8200e-01,-4.4700e+00,-2.9770e+00, 8.6600e-01, 1.3920e+00,-1.2540e+00,
     -8.9600e-01,-4.3420e+00,-3.3700e-01
    },
    {-2.0780e+00,-2.9800e-01,-1.8800e-01, 2.5000e-01,-9.9800e-01, 9.6300e-01,
      1.5500e-01,-1.9200e-01,-1.3810e+00, 1.6000e-02, 8.0000e-03,-1.8000e-02,
     -7.6700e-01, 1.1000e-02,-4.4800e-01, 1.0600e-01, 3.2500e-01, 1.8330e+00,
      2.1800e-01,-9.5000e-02,-1.1000e-01,-5.7900e-01, 5.2000e-01,-1.0500e-01,
     -2.4730e+00,-2.1700e-01,-4.0500e-01,-3.5200e-01, 1.0480e+00,-1.0700e-01,
     -8.3000e-02,-3.9800e-01,-1.9460e+00, 3.5000e-02,-2.0800e-01, 3.1000e-02,
      2.2220e+00,-8.8800e-01, 1.2200e-01, 1.3600e+00,-1.4541e+01,-2.0010e+00,
      7.5500e-01,-4.4500e+00,-2.9630e+00, 8.3600e-01, 1.3790e+00,-1.1590e+00,
     -8.2400e-01,-4.4020e+00,-2.8000e-01
    },
    {-2.0440e+00,-3.1800e-01,-1.9900e-01, 2.4000e-01,-9.9600e-01, 9.5700e-01,
      1.4800e-01,-2.2400e-01,-1.4650e+00,-5.4000e-02, 3.0000e-03,-1.7000e-02,
     -8.1200e-01, 1.4000e-02,-4.5800e-01, 1.0300e-01, 3.3500e-01, 1.8720e+00,
      2.6600e-01,-9.3000e-02,-1.3200e-01,-5.4200e-01, 5.5900e-01,-8.6000e-02,
     -2.4720e+00,-2.4200e-01,-3.9300e-01,-3.1900e-01, 1.0790e+00,-9.7000e-02,
     -1.0800e-01,-3.7900e-01,-1.9560e+00, 5.9000e-02,-2.0400e-01, 6.8000e-02,
      2.2090e+00,-8.9500e-01, 1.0500e-01, 1.3820e+00,-1.4580e+01,-1.9020e+00,
      7.0700e-01,-4.3430e+00,-2.8620e+00, 7.8800e-01, 1.3430e+00,-1.1450e+00,
     -7.3100e-01,-4.5050e+00,-2.7700e-01
    },
    {-2.0560e+00,-2.9600e-01,-2.3300e-01, 1.9600e-01,-1.0040e+00, 9.3700e-01,
      1.4800e-01,-2.2200e-01,-1.4220e+00,-1.7000e-02,-1.4000e-02,-7.0000e-03,
     -8.3700e-01, 1.7000e-02,-4.5400e-01, 9.1000e-02, 3.0900e-01, 1.8870e+00,
      2.7100e-01,-1.3900e-01,-1.1700e-01,-5.3900e-01, 5.5600e-01,-6.0000e-02,
     -2.4700e+00,-2.5200e-01,-4.0400e-01,-3.0300e-01, 1.1170e+00,-8.1000e-02,
     -7.0000e-02,-3.3100e-01,-1.9120e+00, 4.3000e-02,-2.6000e-01, 5.2000e-02,
      2.1700e+00,-8.4500e-01, 1.7700e-01, 1.3480e+00,-1.4532e+01,-1.7830e+00,
      7.2700e-01,-4.4810e+00,-3.0330e+00, 8.0000e-01, 1.2700e+00,-1.1480e+00,
     -8.2500e-01,-4.5220e+00,-3.6800e-01
    },
    {-2.1080e+00,-3.8700e-01,-3.9900e-01, 1.6400e-01,-1.0680e+00, 9.9400e-01,
      1.6500e-01,-2.5800e-01,-1.4370e+00,-5.0000e-03,-2.6000e-02,-6.0000e-02,
     -7.7100e-01, 3.8000e-02,-4.6200e-01, 1.3300e-01, 3.1200e-01, 1.8170e+00,
      1.9800e-01,-1.5000e-01,-1.4000e-01,-5.9500e-01, 5.4600e-01,-7.9000e-02,
     -2.5540e+00,-2.9900e-01,-3.2000e-01,-2.7800e-01, 1.0970e+00,-7.4000e-02,
     -1.6000e-02,-4.1800e-01,-1.8940e+00,-7.6000e-02,-3.3600e-01, 3.4000e-02,
      2.1120e+00,-9.2100e-01, 1.4500e-01, 1.3590e+00,-1.4590e+01,-1.7120e+00,
      6.9200e-01,-4.6000e+00,-3.0340e+00, 8.2000e-01, 1.2170e+00,-1.2110e+00,
     -8.6800e-01,-4.5260e+00,-2.6300e-01
    },
    {-2.1300e+00,-3.5800e-01,-4.7700e-01, 1.5800e-01,-1.0610e+00, 1.0130e+00,
      2.0200e-01,-2.6800e-01,-1.4590e+00, 1.3000e-02,-7.9000e-02,-4.9000e-02,
     -7.7200e-01, 4.2000e-02,-4.1700e-01, 1.4900e-01, 3.2500e-01, 1.7520e+00,
      2.2500e-01,-1.4500e-01,-9.6000e-02,-6.3000e-01, 5.4800e-01,-4.0000e-02,
     -2.5620e+00,-2.2900e-01,-2.6300e-01,-2.5500e-01, 1.1070e+00,-8.6000e-02,
      5.0000e-03,-4.4600e-01,-1.9460e+00,-1.0000e-01,-3.1000e-01, 6.3000e-02,
      2.1910e+00,-9.3400e-01, 2.1400e-01, 1.3510e+00,-1.4550e+01,-1.6950e+00,
      6.7200e-01,-4.5640e+00,-3.0910e+00, 8.8300e-01, 1.1600e+00,-1.1880e+00,
     -8.7000e-01,-4.4400e+00,-3.3000e-01
    },
    {-2.0870e+00,-4.2300e-01,-4.8400e-01, 1.8500e-01,-1.1280e+00, 1.0380e+00,
      2.2200e-01,-3.2400e-01,-1.4860e+00,-2.0000e-03,-6.5000e-02,-9.1000e-02,
     -7.2600e-01, 2.3000e-02,-4.1200e-01, 1.3400e-01, 3.0700e-01, 1.7490e+00,
      1.9700e-01,-8.1000e-02,-1.0700e-01,-5.8900e-01, 5.4500e-01,-1.1100e-01,
     -2.5120e+00,-2.0900e-01,-1.9500e-01,-1.1400e-01, 1.0910e+00,-4.1000e-02,
     -1.3000e-02,-4.4400e-01,-1.8790e+00,-9.3000e-02,-2.7000e-01, 1.3100e-01,
      2.1540e+00,-9.5300e-01, 1.3000e-01, 1.4210e+00,-1.4653e+01,-1.7520e+00,
      6.1300e-01,-4.4980e+00,-3.0890e+00, 8.2800e-01, 1.1150e+00,-1.2330e+00,
     -1.0010e+00,-4.6330e+00,-2.6900e-01
    },
    {-2.1350e+00,-3.2700e-01,-4.4000e-01, 3.0200e-01,-1.1650e+00, 1.0510e+00,
      2.0000e-01,-2.7300e-01,-1.5310e+00, 7.0000e-03,-4.5000e-02, 7.0000e-03,
     -7.0500e-01, 2.6000e-02,-4.2100e-01, 1.1500e-01, 3.1500e-01, 1.7060e+00,
      1.6600e-01,-9.4000e-02,-1.8800e-01,-5.7000e-01, 5.4200e-01,-8.6000e-02,
     -2.5430e+00,-1.4800e-01,-1.3800e-01,-1.8700e-01, 1.0560e+00,-1.7000e-02,
      3.6000e-02,-4.7200e-01,-1.8940e+00,-8.5000e-02,-2.8500e-01, 1.3300e-01,
      2.2880e+00,-8.6500e-01, 1.1500e-01, 1.3740e+00,-1.4641e+01,-1.6520e+00,
      5.9300e-01,-4.4620e+00,-3.2500e+00, 9.1200e-01, 1.0910e+00,-1.3240e+00,
     -1.0380e+00,-4.6060e+00,-2.5800e-01
    },
    {-2.0890e+00,-4.0900e-01,-4.9600e-01, 2.8600e-01,-1.1530e+00, 1.0050e+00,
      2.0100e-01,-3.2200e-01,-1.4400e+00,-5.4000e-02,-5.3000e-02,-7.8000e-02,
     -7.8200e-01, 2.3000e-02,-4.1200e-01, 1.3300e-01, 2.9600e-01, 1.7750e+00,
      1.4200e-01,-1.1300e-01,-2.0800e-01,-5.4300e-01, 5.2000e-01,-9.5000e-02,
     -2.5790e+00,-1.6800e-01,-1.4400e-01,-1.8500e-01, 1.0600e+00,-0.0000e+00,
      4.0000e-03,-4.6600e-01,-1.8660e+00,-1.1400e-01,-3.3600e-01, 1.3100e-01,
      2.1780e+00,-8.1300e-01, 1.6200e-01, 1.3960e+00,-1.4624e+01,-1.7300e+00,
      6.0700e-01,-4.5980e+00,-3.3740e+00, 8.2500e-01, 1.1900e+00,-1.1390e+00,
     -9.8500e-01,-4.4930e+00,-3.0600e-01
    },
    {-2.0750e+00,-4.4500e-01,-5.2600e-01, 2.6000e-01,-1.1770e+00, 9.8800e-01,
      2.0500e-01,-3.4800e-01,-1.4170e+00,-3.2000e-02,-4.7000e-02,-1.0100e-01,
     -7.8100e-01, 1.8000e-02,-3.7800e-01, 1.0600e-01, 2.4300e-01, 1.8300e+00,
      1.4100e-01,-1.1400e-01,-1.5300e-01,-5.6800e-01, 5.6700e-01,-1.1300e-01,
     -2.5320e+00,-1.3000e-01,-1.3800e-01,-2.4100e-01, 1.1260e+00, 1.6000e-02,
     -2.3000e-02,-4.1500e-01,-1.8610e+00,-6.3000e-02,-3.7300e-01, 1.5300e-01,
      2.1510e+00,-7.9600e-01, 1.5700e-01, 1.4250e+00,-1.4639e+01,-1.7660e+00,
      6.1300e-01,-4.6040e+00,-3.2140e+00, 8.3000e-01, 1.1620e+00,-1.1550e+00,
     -1.0050e+00,-4.6330e+00,-3.0200e-01
    },
    {-1.9220e+00,-4.4500e-01,-5.9700e-01, 2.7900e-01,-1.0820e+00, 9.8000e-01,
      2.2200e-01,-3.5400e-01,-1.3540e+00,-2.0000e-03,-3.6000e-02,-9.0000e-02,
     -8.4000e-01, 2.0000e-02,-3.9700e-01, 1.1100e-01, 2.3600e-01, 1.8200e+00,
      1.5400e-01,-1.0900e-01,-9.7000e-02,-5.9800e-01, 5.6400e-01,-1.9000e-02,
     -2.5490e+00,-8.0000e-02,-9.2000e-02,-1.9100e-01, 1.1410e+00,-5.4000e-02,
      7.5000e-02,-3.8600e-01,-1.8580e+00,-7.1000e-02,-2.7100e-01, 1.7000e-01,
      2.1540e+00,-8.7100e-01, 1.3800e-01, 1.4220e+00,-1.4733e+01,-1.7770e+00,
      6.0300e-01,-4.5570e+00,-3.4780e+00, 8.7600e-01, 1.2530e+00,-1.0510e+00,
     -9.8100e-01,-4.6270e+00,-3.6000e-01
    },
    {-1.9250e+00,-4.9800e-01,-6.1900e-01, 3.4000e-01,-1.0990e+00, 9.4100e-01,
      1.9100e-01,-3.8900e-01,-1.3900e+00,-6.9000e-02,-6.1000e-02,-8.6000e-02,
     -8.2000e-01, 2.9000e-02,-3.9900e-01, 7.6000e-02, 2.6000e-01, 1.8830e+00,
      1.6000e-01,-1.1800e-01,-1.5300e-01,-5.6000e-01, 6.0500e-01,-8.0000e-02,
     -2.5960e+00,-1.2800e-01,-9.0000e-02,-1.2500e-01, 1.1500e+00,-7.3000e-02,
      5.0000e-02,-4.4600e-01,-1.7950e+00, 1.8000e-02,-2.3200e-01, 1.8200e-01,
      2.1140e+00,-8.4300e-01, 2.1100e-01, 1.4090e+00,-1.4751e+01,-1.8610e+00,
      5.8300e-01,-4.5190e+00,-3.4150e+00, 7.8800e-01, 1.2280e+00,-1.1160e+00,
     -9.6100e-01,-4.6150e+00,-3.3400e-01
    },
    {-1.9170e+00,-4.5700e-01,-6.0300e-01, 3.3700e-01,-1.0950e+00, 9.1200e-01,
      2.1400e-01,-2.6800e-01,-1.3680e+00, 8.0000e-03,-9.3000e-02,-1.0700e-01,
     -8.0300e-01, 4.0000e-02,-3.5700e-01, 8.9000e-02, 3.3100e-01, 1.8880e+00,
      2.2100e-01,-6.2000e-02,-9.0000e-02,-5.6300e-01, 6.2000e-01,-1.4200e-01,
     -2.6130e+00,-1.1000e-01,-1.8400e-01,-1.3200e-01, 1.1840e+00,-1.0800e-01,
      9.8000e-02,-4.4600e-01,-1.7730e+00, 3.0000e-03,-2.6400e-01, 1.3900e-01,
      2.1510e+00,-7.6300e-01, 2.1200e-01, 1.3890e+00,-1.4766e+01,-1.8060e+00,
      6.1700e-01,-4.5370e+00,-3.3790e+00, 8.0800e-01, 1.0130e+00,-1.1900e+00,
     -9.2200e-01,-4.6590e+00,-3.9100e-01
    },
    {-1.9290e+00,-4.5800e-01,-6.5700e-01, 2.9500e-01,-1.1660e+00, 9.6100e-01,
      2.3100e-01,-2.9900e-01,-1.3840e+00, 2.7000e-02,-3.6000e-02,-7.8000e-02,
     -7.7300e-01, 3.9000e-02,-3.6800e-01, 1.0600e-01, 3.5700e-01, 1.8890e+00,
      2.3800e-01,-4.5000e-02,-1.5000e-01,-5.7800e-01, 6.3300e-01,-1.3400e-01,
     -2.6470e+00,-1.4300e-01,-2.0800e-01,-8.2000e-02, 1.1670e+00,-1.0600e-01,
      1.0100e-01,-4.5000e-01,-1.8300e+00,-4.0000e-03,-2.6300e-01, 1.3600e-01,
      2.1070e+00,-7.3000e-01, 1.8100e-01, 1.3410e+00,-1.4699e+01,-1.9000e+00,
      6.5600e-01,-4.5860e+00,-3.3900e+00, 8.3100e-01, 1.0260e+00,-1.0050e+00,
     -9.6500e-01,-4.6510e+00,-3.3800e-01
    },
    {-1.9430e+00,-3.9100e-01,-6.7700e-01, 2.6000e-01,-1.1280e+00, 9.7800e-01,
      2.2700e-01,-2.7800e-01,-1.3860e+00, 3.1000e-02,-5.9000e-02,-8.8000e-02,
     -7.1800e-01, 3.0000e-02,-3.8800e-01, 1.4800e-01, 3.8600e-01, 1.9330e+00,
      2.0100e-01,-5.2000e-02,-2.0300e-01,-5.7500e-01, 5.9300e-01,-1.3400e-01,
     -2.6770e+00,-1.2200e-01,-2.4300e-01,-1.1900e-01, 1.1290e+00,-8.9000e-02,
      1.0400e-01,-4.8800e-01,-1.8270e+00,-2.5000e-02,-2.7900e-01, 1.0500e-01,
      2.1610e+00,-7.5400e-01, 8.5000e-02, 1.2690e+00,-1.4637e+01,-1.9210e+00,
      6.3400e-01,-4.5810e+00,-3.2910e+00, 7.9200e-01, 9.6300e-01,-1.0820e+00,
     -1.0150e+00,-4.7110e+00,-3.5300e-01
    },
    {-1.8360e+00,-3.5100e-01,-5.8700e-01, 2.4100e-01,-1.0730e+00, 9.8500e-01,
      1.3000e-01,-2.1100e-01,-1.4260e+00,-1.2000e-02,-1.4200e-01,-8.8000e-02,
     -7.0300e-01, 2.6000e-02,-3.5600e-01, 1.1300e-01, 3.4900e-01, 1.9610e+00,
      1.9200e-01, 3.6000e-02,-1.2000e-01,-6.3600e-01, 5.3400e-01,-1.2100e-01,
     -2.6020e+00,-9.8000e-02,-2.8500e-01,-1.9300e-01, 1.3030e+00,-5.1000e-02,
     -3.0000e-02,-4.1900e-01,-1.8830e+00,-9.9000e-02,-3.0200e-01, 1.1200e-01,
      2.0600e+00,-7.0800e-01, 2.5000e-02, 1.2410e+00,-1.4738e+01,-1.9740e+00,
      6.0800e-01,-4.5740e+00,-3.4710e+00, 7.1800e-01, 9.4600e-01,-1.0800e+00,
     -1.0520e+00,-4.6440e+00,-3.2800e-01
    },
    {-1.8400e+00,-3.7800e-01,-5.8100e-01, 1.9900e-01,-1.0150e+00, 1.0260e+00,
      1.6800e-01,-1.9500e-01,-1.4410e+00, 1.0000e-02,-9.1000e-02,-6.0000e-02,
     -7.3700e-01, 3.8000e-02,-3.6000e-01, 1.1000e-01, 3.6000e-01, 2.0340e+00,
      1.6300e-01, 2.4000e-02,-1.0600e-01,-6.3100e-01, 5.5500e-01,-1.3600e-01,
     -2.5430e+00,-9.8000e-02,-2.8800e-01,-2.3200e-01, 1.3200e+00,-9.3000e-02,
     -4.3000e-02,-3.8800e-01,-1.8400e+00,-6.2000e-02,-3.2100e-01, 9.0000e-02,
      2.0480e+00,-7.7400e-01, 7.9000e-02, 1.1990e+00,-1.4750e+01,-1.9340e+00,
      6.1100e-01,-4.4820e+00,-3.4570e+00, 7.8200e-01, 9.6700e-01,-1.0800e+00,
     -9.9000e-01,-4.6900e+00,-3.5400e-01
    },
    {-1.8170e+00,-2.9800e-01,-5.3200e-01, 1.7500e-01,-1.0930e+00, 1.0080e+00,
      1.5200e-01,-1.9300e-01,-1.4290e+00, 1.7000e-02,-1.0000e-02,-5.1000e-02,
     -7.7100e-01, 3.4000e-02,-3.7300e-01, 1.2500e-01, 3.9600e-01, 1.9410e+00,
      2.8500e-01,-3.5000e-02,-8.3000e-02,-5.6700e-01, 5.5400e-01,-6.3000e-02,
     -2.7360e+00,-1.6500e-01,-3.3800e-01,-2.1400e-01, 1.2850e+00,-1.5000e-01,
      4.5000e-02,-3.7900e-01,-1.7600e+00,-9.2000e-02,-2.8500e-01, 5.2000e-02,
      2.0270e+00,-6.3600e-01, 7.8000e-02, 1.3070e+00,-1.4820e+01,-2.0090e+00,
      6.4600e-01,-4.3880e+00,-3.4140e+00, 8.1600e-01, 1.1850e+00,-1.2840e+00,
     -1.0690e+00,-4.6500e+00,-3.8900e-01
    },
    {-1.8380e+00,-2.7500e-01,-5.2200e-01, 1.8400e-01,-1.0350e+00, 1.0220e+00,
      1.4200e-01,-1.5000e-01,-1.4270e+00, 4.9000e-02,-5.9000e-02, 1.1000e-02,
     -7.6300e-01, 8.0000e-03,-3.6000e-01, 1.3600e-01, 4.2000e-01, 1.9410e+00,
      2.5100e-01, 8.0000e-03,-1.1000e-01,-5.2400e-01, 5.7300e-01,-1.0300e-01,
     -2.7300e+00,-8.6000e-02,-3.0900e-01,-2.0700e-01, 1.2890e+00,-1.7000e-01,
      4.3000e-02,-3.9000e-01,-1.8160e+00,-5.6000e-02,-2.9600e-01, 2.6000e-02,
      2.0600e+00,-6.5900e-01, 1.7000e-02, 1.2780e+00,-1.4703e+01,-1.9410e+00,
      5.5700e-01,-4.4210e+00,-3.3970e+00, 8.2800e-01, 1.1280e+00,-1.1600e+00,
     -1.1600e+00,-4.6670e+00,-3.4900e-01
    },
    {-1.8580e+00,-3.2700e-01,-5.1800e-01, 1.7600e-01,-1.0490e+00, 1.0210e+00,
      1.2000e-01,-1.2200e-01,-1.4860e+00, 1.9000e-02,-1.2000e-01, 2.3000e-02,
     -7.8400e-01, 2.2000e-02,-4.0200e-01, 1.5300e-01, 3.9700e-01, 1.9780e+00,
      2.0100e-01,-5.0000e-03,-1.4400e-01,-6.2000e-01, 5.3800e-01,-9.1000e-02,
     -2.7070e+00,-1.6600e-01,-3.3800e-01,-2.0000e-01, 1.2830e+00,-1.3700e-01,
      5.4000e-02,-3.8700e-01,-1.8610e+00, 1.1000e-02,-2.3400e-01, 8.0000e-03,
      2.0600e+00,-5.7900e-01, 3.2000e-02, 1.2560e+00,-1.4520e+01,-1.9540e+00,
      6.5700e-01,-4.3210e+00,-3.3170e+00, 8.6800e-01, 1.1520e+00,-1.1800e+00,
     -1.1990e+00,-4.5970e+00,-3.1000e-01
    },
    {-1.8620e+00,-2.7400e-01,-4.2900e-01, 1.8200e-01,-1.1710e+00, 1.0250e+00,
      1.4600e-01,-1.0300e-01,-1.5250e+00,-4.6000e-02,-1.1100e-01,-2.1000e-02,
     -7.8700e-01, 2.9000e-02,-3.7800e-01, 1.3900e-01, 4.1700e-01, 1.9510e+00,
      1.7000e-01, 2.8000e-02,-1.6500e-01,-6.7500e-01, 5.4600e-01,-8.6000e-02,
     -2.6820e+00,-1.3500e-01,-3.3900e-01,-2.0500e-01, 1.3360e+00,-9.1000e-02,
      4.5000e-02,-3.4600e-01,-1.8390e+00, 6.5000e-02,-1.8300e-01,-2.4000e-02,
      2.0250e+00,-5.3300e-01, 2.3000e-02, 1.2810e+00,-1.4439e+01,-2.0450e+00,
      6.8800e-01,-4.2320e+00,-3.4460e+00, 9.8800e-01, 1.2160e+00,-1.1550e+00,
     -1.1920e+00,-4.5750e+00,-4.1200e-01
    },
    {-1.8940e+00,-3.1300e-01,-4.6300e-01, 2.6300e-01,-1.1380e+00, 1.0440e+00,
      1.9400e-01,-1.8900e-01,-1.5880e+00,-8.8000e-02,-6.6000e-02, 2.0000e-03,
     -6.9100e-01, 1.2000e-02,-4.1000e-01, 1.2400e-01, 4.0600e-01, 1.8870e+00,
      2.0600e-01,-8.0000e-03,-8.8000e-02,-7.0200e-01, 5.6600e-01,-5.5000e-02,
     -2.7250e+00,-3.8000e-02,-2.6000e-01,-2.2400e-01, 1.2640e+00,-7.8000e-02,
      4.6000e-02,-3.0900e-01,-1.7730e+00, 5.5000e-02,-9.6000e-02,-9.7000e-02,
      2.0730e+00,-5.0200e-01, 5.1000e-02, 1.2760e+00,-1.4385e+01,-2.0300e+00,
      6.8200e-01,-4.1620e+00,-3.3490e+00, 8.2800e-01, 1.0670e+00,-1.2730e+00,
     -1.0710e+00,-4.5360e+00,-4.0900e-01
    },
    {-1.8920e+00,-2.2400e-01,-4.9100e-01, 1.9900e-01,-1.1790e+00, 1.0630e+00,
      1.4700e-01,-1.8400e-01,-1.6090e+00,-3.8000e-02,-9.0000e-03,-1.0100e-01,
     -7.2300e-01, 2.1000e-02,-4.0500e-01, 1.1400e-01, 3.6000e-01, 1.8410e+00,
      2.6900e-01,-6.0000e-02,-4.7000e-02,-6.2800e-01, 5.3000e-01,-9.9000e-02,
     -2.7070e+00,-4.7000e-02,-2.4900e-01,-2.8400e-01, 1.3910e+00,-1.2200e-01,
      4.3000e-02,-2.9800e-01,-1.7790e+00, 1.0500e-01,-1.3100e-01,-7.7000e-02,
      2.0460e+00,-5.2400e-01, 7.7000e-02, 1.1740e+00,-1.4344e+01,-2.1820e+00,
      7.5500e-01,-4.0590e+00,-3.4200e+00, 8.9900e-01, 1.1450e+00,-1.2410e+00,
     -1.0860e+00,-4.4750e+00,-4.7400e-01
    },
    {-1.8530e+00,-2.6900e-01,-5.1000e-01, 2.7500e-01,-1.1450e+00, 1.0280e+00,
      1.8600e-01,-2.0000e-01,-1.6460e+00,-1.2000e-02,-2.8000e-02,-9.9000e-02,
     -7.3700e-01, 3.1000e-02,-4.1000e-01, 1.0900e-01, 3.1900e-01, 1.8020e+00,
      2.3000e-01,-9.0000e-02,-4.1000e-02,-5.8300e-01, 4.9500e-01,-6.0000e-02,
     -2.7300e+00,-3.6000e-02,-2.4200e-01,-2.5500e-01, 1.3220e+00,-1.2900e-01,
      1.0300e-01,-2.9000e-01,-1.7570e+00, 8.2000e-02,-1.4800e-01,-4.1000e-02,
      2.0490e+00,-5.6200e-01, 3.4000e-02, 1.1870e+00,-1.4388e+01,-2.1070e+00,
      7.0900e-01,-4.1230e+00,-3.4940e+00, 9.0600e-01, 1.1830e+00,-1.3320e+00,
     -1.2870e+00,-4.5110e+00,-4.8600e-01
    },
    {-1.7920e+00,-2.5500e-01,-4.6000e-01, 3.0300e-01,-1.1120e+00, 9.5600e-01,
      1.8300e-01,-2.2400e-01,-1.6720e+00, 3.0000e-02,-6.0000e-03,-1.9500e-01,
     -7.0300e-01, 3.1000e-02,-4.1200e-01, 1.1700e-01, 2.4700e-01, 1.8170e+00,
      1.9700e-01,-1.5100e-01,-1.1000e-02,-5.3600e-01, 4.7800e-01,-1.3000e-02,
     -2.7550e+00,-3.3000e-02,-2.1500e-01,-2.6400e-01, 1.3580e+00,-1.6200e-01,
      1.3500e-01,-3.3100e-01,-1.8030e+00, 5.0000e-02,-1.4300e-01,-2.4000e-02,
      1.9530e+00,-6.3600e-01, 2.3000e-02, 1.2500e+00,-1.4524e+01,-2.0670e+00,
      6.6500e-01,-4.2980e+00,-3.4160e+00, 8.8100e-01, 1.2900e+00,-1.3160e+00,
     -1.2590e+00,-4.5630e+00,-4.8400e-01
    },
    {-1.8580e+00,-3.1500e-01,-4.8300e-01, 3.0300e-01,-1.1520e+00, 1.0090e+00,
      1.1500e-01,-2.2200e-01,-1.7050e+00, 7.9000e-02,-1.0000e-02,-2.0200e-01,
     -7.6300e-01, 3.5000e-02,-3.9800e-01, 1.1200e-01, 3.4800e-01, 1.8000e+00,
      2.6000e-01,-7.8000e-02,-8.0000e-02,-5.7900e-01, 5.0200e-01,-8.7000e-02,
     -2.8370e+00,-3.5000e-02,-2.2200e-01,-2.5700e-01, 1.4310e+00,-1.1900e-01,
      5.8000e-02,-3.3200e-01,-1.7690e+00, 0.0000e+00,-9.1000e-02,-6.0000e-02,
      1.9820e+00,-6.4300e-01, 3.9000e-02, 1.1960e+00,-1.4673e+01,-1.9330e+00,
      7.1400e-01,-4.3450e+00,-3.5950e+00, 9.3200e-01, 1.2430e+00,-1.4290e+00,
     -1.2790e+00,-4.5880e+00,-5.2100e-01
    },
    {-1.8770e+00,-3.3900e-01,-4.8800e-01, 2.7300e-01,-1.1190e+00, 1.1200e+00,
      1.4600e-01,-2.2600e-01,-1.7430e+00, 2.5000e-02,-5.0000e-02,-1.8400e-01,
     -6.7900e-01, 4.0000e-02,-4.0200e-01, 1.1200e-01, 3.2300e-01, 1.7810e+00,
      2.1700e-01,-1.1800e-01,-6.9000e-02,-6.1200e-01, 4.6600e-01,-9.1000e-02,
     -2.8160e+00,-2.5000e-02,-1.9800e-01,-2.1200e-01, 1.3910e+00,-8.4000e-02,
      6.9000e-02,-3.4600e-01,-1.8830e+00,-8.0000e-03,-1.6000e-02,-1.1200e-01,
      1.9970e+00,-6.8500e-01, 2.1000e-02, 1.1450e+00,-1.4608e+01,-2.0130e+00,
      7.0600e-01,-4.4360e+00,-3.6150e+00, 8.8200e-01, 1.2600e+00,-1.4400e+00,
     -1.4260e+00,-4.4880e+00,-4.7700e-01
    },
    {-1.9540e+00,-3.4300e-01,-5.6600e-01, 2.6700e-01,-1.1090e+00, 1.1220e+00,
      1.4900e-01,-1.7400e-01,-1.7340e+00,-5.2000e-02,-3.5000e-02,-1.7600e-01,
     -7.1200e-01, 2.4000e-02,-4.2900e-01, 1.2500e-01, 3.2200e-01, 1.7590e+00,
      2.1100e-01,-1.3600e-01,-3.4000e-02,-5.8500e-01, 4.4600e-01,-9.2000e-02,
     -2.7920e+00, 2.7000e-02,-2.3500e-01,-2.0100e-01, 1.3890e+00,-8.1000e-02,
      2.0000e-02,-3.3500e-01,-1.8630e+00,-6.0000e-03,-2.1000e-02,-8.3000e-02,
      1.9590e+00,-7.2400e-01,-7.0000e-03, 1.1650e+00,-1.4452e+01,-1.8870e+00,
      7.1400e-01,-4.2860e+00,-3.4230e+00, 8.9700e-01, 1.3580e+00,-1.4080e+00,
     -1.3090e+00,-4.4570e+00,-4.0400e-01
    },
    {-1.9990e+00,-3.3900e-01,-6.2000e-01, 2.7100e-01,-1.0540e+00, 1.1030e+00,
      2.2100e-01,-1.6500e-01,-1.7520e+00,-3.0000e-02,-8.6000e-02,-1.6000e-01,
     -6.9500e-01, 2.2000e-02,-4.1300e-01, 9.9000e-02, 3.7300e-01, 1.8020e+00,
      1.8700e-01,-1.5800e-01,-1.0000e-02,-5.6000e-01, 4.6200e-01,-9.8000e-02,
     -2.7200e+00, 5.6000e-02,-2.0900e-01,-1.8300e-01, 1.3960e+00,-7.5000e-02,
     -8.0000e-03,-3.2600e-01,-1.8880e+00,-8.6000e-02, 4.0000e-03,-6.7000e-02,
      1.9790e+00,-7.5600e-01, 1.9000e-02, 1.1260e+00,-1.4434e+01,-1.8950e+00,
      6.3900e-01,-4.3340e+00,-3.2930e+00, 8.6100e-01, 1.3480e+00,-1.3520e+00,
     -1.3210e+00,-4.4210e+00,-3.9100e-01
    },
    {-2.0100e+00,-4.1400e-01,-5.3000e-01, 1.2100e-01,-1.0260e+00, 1.1250e+00,
      1.5700e-01,-1.0700e-01,-1.6960e+00,-5.3000e-02,-4.6000e-02,-4.3000e-02,
     -7.8500e-01, 3.3000e-02,-4.1700e-01, 1.1500e-01, 4.0200e-01, 1.8700e+00,
      2.7200e-01,-6.0000e-02,-7.1000e-02,-6.5800e-01, 5.8800e-01,-1.2800e-01,
     -2.7450e+00, 1.2200e-01,-2.3600e-01,-6.6000e-02, 1.3350e+00,-8.7000e-02,
     -2.5000e-02,-2.8400e-01,-1.8450e+00,-1.1500e-01,-2.4000e-02, 7.3000e-02,
      2.0250e+00,-7.3900e-01, 1.3000e-02, 1.0950e+00,-1.4560e+01,-2.0160e+00,
      6.6500e-01,-4.2680e+00,-3.2970e+00, 8.5000e-01, 1.2330e+00,-1.2460e+00,
     -1.2440e+00,-4.4640e+00,-3.8000e-01
    },
    {-2.0710e+00,-3.6900e-01,-5.7600e-01, 2.2000e-01,-1.0530e+00, 1.0620e+00,
      1.1700e-01,-8.7000e-02,-1.6500e+00,-7.1000e-02,-1.6000e-02,-9.2000e-02,
     -7.5700e-01, 1.7000e-02,-4.2100e-01, 1.0600e-01, 3.8500e-01, 1.8110e+00,
      2.6500e-01,-5.6000e-02,-8.3000e-02,-6.1400e-01, 5.3500e-01,-1.1400e-01,
     -2.7230e+00, 1.1600e-01,-2.5800e-01,-8.3000e-02, 1.3810e+00,-6.5000e-02,
     -4.3000e-02,-2.8700e-01,-1.9090e+00,-7.4000e-02,-7.0000e-02, 1.0100e-01,
      1.9710e+00,-6.8700e-01, 1.0000e-02, 1.1800e+00,-1.4363e+01,-2.1770e+00,
      7.1400e-01,-4.3550e+00,-3.2470e+00, 8.3500e-01, 1.3280e+00,-1.1250e+00,
     -1.3970e+00,-4.3970e+00,-3.8200e-01
    },
    {-2.1090e+00,-3.8900e-01,-5.8100e-01, 3.1200e-01,-1.1320e+00, 1.0500e+00,
      1.6000e-01,-9.3000e-02,-1.6520e+00,-8.9000e-02, 2.0000e-03,-8.0000e-02,
     -7.3500e-01, 2.1000e-02,-3.9300e-01, 1.0700e-01, 3.5600e-01, 1.8230e+00,
      2.5600e-01,-1.1300e-01,-4.9000e-02,-6.4400e-01, 5.3700e-01,-7.6000e-02,
     -2.6660e+00, 6.4000e-02,-2.9200e-01,-6.5000e-02, 1.3590e+00,-5.6000e-02,
     -2.6000e-02,-3.0500e-01,-1.8270e+00,-2.0000e-02,-7.5000e-02, 8.4000e-02,
      1.9940e+00,-7.0200e-01, 3.7000e-02, 1.2480e+00,-1.4279e+01,-2.1590e+00,
      7.4800e-01,-4.2840e+00,-3.2360e+00, 8.6400e-01, 1.3650e+00,-1.1700e+00,
     -1.4810e+00,-4.5590e+00,-4.1800e-01
    },
    {-2.0870e+00,-4.0200e-01,-5.5300e-01, 1.8400e-01,-1.0310e+00, 9.9900e-01,
      1.4600e-01,-9.7000e-02,-1.6440e+00,-5.0000e-03, 1.3000e-02,-9.6000e-02,
     -8.2600e-01, 2.9000e-02,-4.2400e-01, 1.5800e-01, 3.1300e-01, 1.9020e+00,
      3.0900e-01,-7.4000e-02,-4.2000e-02,-5.6500e-01, 4.9900e-01,-6.4000e-02,
     -2.6110e+00, 4.8000e-02,-2.2900e-01,-1.7300e-01, 1.3420e+00,-1.1300e-01,
     -2.0000e-03,-3.5400e-01,-1.8610e+00, 1.3000e-02,-1.1000e-01, 6.0000e-02,
      1.9330e+00,-7.1200e-01, 4.5000e-02, 1.2640e+00,-1.4253e+01,-1.9390e+00,
      7.6100e-01,-4.2770e+00,-3.1170e+00, 8.6400e-01, 1.4710e+00,-1.1550e+00,
     -1.4760e+00,-4.6390e+00,-3.7000e-01
    },
    {-2.0530e+00,-4.0200e-01,-4.6700e-01, 1.8300e-01,-1.0500e+00, 9.7800e-01,
      1.4200e-01,-1.4800e-01,-1.6480e+00,-5.2000e-02, 4.0000e-03,-1.0400e-01,
     -9.0000e-01, 3.7000e-02,-4.6900e-01, 1.0800e-01, 2.7700e-01, 1.8940e+00,
      2.9300e-01,-1.3800e-01,-6.6000e-02,-5.6500e-01, 4.7800e-01,-6.1000e-02,
     -2.6180e+00, 4.0000e-02,-1.8900e-01,-1.7500e-01, 1.2770e+00,-9.5000e-02,
     -4.0000e-03,-3.2900e-01,-1.8180e+00, 1.5000e-02,-1.8500e-01, 1.3400e-01,
      1.8990e+00,-7.4600e-01, 4.9000e-02, 1.2050e+00,-1.4369e+01,-1.9390e+00,
      7.1600e-01,-4.2740e+00,-3.2010e+00, 9.1300e-01, 1.5040e+00,-1.1170e+00,
     -1.4090e+00,-4.6300e+00,-4.1700e-01
    },
    {-2.0330e+00,-4.0200e-01,-3.9500e-01, 1.1300e-01,-1.1910e+00, 9.7100e-01,
      1.5700e-01,-1.4000e-01,-1.6470e+00,-1.1300e-01, 8.0000e-03,-1.2200e-01,
     -9.1900e-01, 2.3000e-02,-4.3700e-01, 1.3000e-01, 2.9300e-01, 1.8610e+00,
      2.9800e-01,-1.4300e-01,-4.0000e-03,-5.4500e-01, 4.7900e-01,-6.3000e-02,
     -2.5860e+00, 5.0000e-02,-9.9000e-02,-1.7400e-01, 1.3250e+00,-7.1000e-02,
     -8.0000e-03,-3.2900e-01,-1.8340e+00, 3.0000e-02,-1.6900e-01, 9.0000e-02,
      1.8850e+00,-8.2700e-01, 1.1500e-01, 1.2230e+00,-1.4303e+01,-1.9500e+00,
      7.4300e-01,-4.2560e+00,-3.2130e+00, 9.2800e-01, 1.5710e+00,-1.1440e+00,
     -1.3950e+00,-4.4320e+00,-3.5700e-01
    },
    {-2.0040e+00,-4.1300e-01,-5.1500e-01, 2.2200e-01,-1.0830e+00, 9.5200e-01,
      1.5900e-01,-8.6000e-02,-1.7520e+00,-1.1900e-01, 1.5000e-02,-3.8000e-02,
     -9.2500e-01, 2.4000e-02,-4.5700e-01, 1.0700e-01, 3.3700e-01, 1.8930e+00,
      3.4300e-01,-1.0200e-01, 5.5000e-02,-5.3600e-01, 4.3400e-01,-4.7000e-02,
     -2.5530e+00, 4.1000e-02,-9.6000e-02,-1.4900e-01, 1.3220e+00,-1.2000e-01,
     -4.0000e-03,-2.5600e-01,-1.8230e+00, 7.9000e-02,-1.9600e-01, 7.4000e-02,
      1.9690e+00,-8.5200e-01, 8.4000e-02, 1.3130e+00,-1.4313e+01,-2.0290e+00,
      8.7000e-01,-4.2990e+00,-3.1190e+00, 8.7800e-01, 1.6580e+00,-1.0720e+00,
     -1.4400e+00,-4.3980e+00,-3.6400e-01
    },
    {-1.9620e+00,-4.7300e-01,-5.3100e-01, 2.3700e-01,-1.0920e+00, 9.0600e-01,
      1.5600e-01,-7.1000e-02,-1.7540e+00,-9.0000e-02,-1.0000e-02,-3.3000e-02,
     -9.2200e-01, 1.0000e-02,-5.0000e-01, 8.9000e-02, 2.4000e-01, 1.9360e+00,
      3.5200e-01,-7.8000e-02, 8.5000e-02,-5.0800e-01, 4.1400e-01,-7.9000e-02,
     -2.5160e+00, 3.3000e-02,-9.8000e-02,-1.1300e-01, 1.2620e+00,-1.0700e-01,
     -3.4000e-02,-2.0400e-01,-1.8570e+00, 6.1000e-02,-1.9000e-01, 2.6000e-02,
      1.9530e+00,-8.9800e-01, 1.3100e-01, 1.4070e+00,-1.4266e+01,-2.0430e+00,
      8.8500e-01,-4.3670e+00,-2.9900e+00, 8.0700e-01, 1.6850e+00,-1.0020e+00,
     -1.3880e+00,-4.4330e+00,-4.1600e-01
    },
    {-1.9210e+00,-4.6300e-01,-5.1600e-01, 2.3700e-01,-1.1370e+00, 9.0000e-01,
      1.6700e-01,-4.4000e-02,-1.7090e+00,-6.6000e-02,-4.0000e-03,-6.0000e-03,
     -9.0300e-01, 1.2000e-02,-4.5600e-01, 1.0600e-01, 2.9300e-01, 1.9940e+00,
      3.6700e-01,-5.4000e-02, 6.1000e-02,-5.0400e-01, 4.4700e-01,-8.9000e-02,
     -2.4770e+00, 5.8000e-02,-1.0500e-01,-1.2000e-01, 1.2320e+00,-1.0200e-01,
     -2.2000e-02,-1.9600e-01,-1.9340e+00, 8.4000e-02,-1.8600e-01, 2.5000e-02,
      1.9690e+00,-8.8500e-01, 1.2300e-01, 1.4140e+00,-1.4279e+01,-1.8910e+00,
      8.1800e-01,-4.5110e+00,-3.0430e+00, 8.4900e-01, 1.6340e+00,-9.9800e-01,
     -1.5520e+00,-4.4810e+00,-3.0800e-01
    },
    {-1.9810e+00,-4.5700e-01,-4.2900e-01, 1.9500e-01,-1.0930e+00, 8.8100e-01,
      1.5900e-01,-1.0300e-01,-1.7500e+00,-1.1800e-01, 5.0000e-03,-1.0000e-01,
     -9.0300e-01, 2.4000e-02,-5.2400e-01, 9.4000e-02, 2.6900e-01, 1.8820e+00,
      3.2800e-01,-1.0800e-01, 2.2000e-02,-4.7100e-01, 4.0700e-01,-9.7000e-02,
     -2.6100e+00, 3.0000e-02,-8.0000e-02,-7.5000e-02, 1.2870e+00,-7.5000e-02,
     -2.4000e-02,-2.8200e-01,-2.0500e+00, 3.6000e-02,-1.5600e-01, 7.8000e-02,
      1.8860e+00,-8.6100e-01, 1.3600e-01, 1.3060e+00,-1.4358e+01,-1.9400e+00,
      8.0000e-01,-4.4910e+00,-3.0740e+00, 8.6000e-01, 1.7340e+00,-1.0850e+00,
     -1.6140e+00,-4.5100e+00,-3.7300e-01
    },
    {-1.9680e+00,-4.4400e-01,-4.6100e-01, 1.9100e-01,-1.0890e+00, 8.8600e-01,
      1.2000e-01,-1.0700e-01,-1.7420e+00,-4.2000e-02,-3.0000e-03,-3.9000e-02,
     -9.3900e-01, 3.0000e-02,-5.8200e-01, 1.0500e-01, 2.6800e-01, 1.9210e+00,
      3.3900e-01,-8.8000e-02, 1.6000e-02,-4.7800e-01, 4.0000e-01,-9.1000e-02,
     -2.6570e+00, 2.5000e-02,-8.9000e-02,-6.5000e-02, 1.2900e+00,-9.3000e-02,
     -2.5000e-02,-2.6000e-01,-2.0470e+00, 3.2000e-02,-1.3600e-01, 9.7000e-02,
      1.9280e+00,-9.0900e-01, 1.0400e-01, 1.3290e+00,-1.4274e+01,-1.6580e+00,
      8.1500e-01,-4.5450e+00,-3.0500e+00, 9.0100e-01, 1.7210e+00,-1.1050e+00,
     -1.5290e+00,-4.5400e+00,-3.4600e-01
    },
    {-2.0060e+00,-4.0400e-01,-5.0800e-01, 1.5900e-01,-1.1490e+00, 1.0230e+00,
      1.0600e-01,-1.4600e-01,-1.7700e+00,-1.1900e-01,-2.9000e-02,-3.3000e-02,
     -8.5100e-01, 2.8000e-02,-4.8300e-01, 1.0400e-01, 3.0000e-01, 1.9550e+00,
      3.0200e-01,-9.6000e-02, 1.8000e-02,-4.9400e-01, 4.1500e-01,-5.0000e-02,
     -2.7580e+00, 6.6000e-02,-4.4000e-02,-8.3000e-02, 1.3870e+00,-8.8000e-02,
     -7.0000e-02,-3.3400e-01,-2.0350e+00, 1.0000e-02,-1.6800e-01, 1.6600e-01,
      1.8610e+00,-8.3500e-01, 1.1700e-01, 1.3830e+00,-1.4285e+01,-1.7450e+00,
      8.0200e-01,-4.5320e+00,-2.8790e+00, 8.9800e-01, 1.6690e+00,-1.0440e+00,
     -1.3270e+00,-4.5740e+00,-3.2400e-01
    },
    {-1.9850e+00,-4.3100e-01,-6.0300e-01,-9.0000e-02,-1.0890e+00, 1.0760e+00,
      7.8000e-02,-2.1800e-01,-1.6910e+00,-8.4000e-02, 2.1000e-02,-6.1000e-02,
     -8.1800e-01, 7.0000e-03,-4.6800e-01, 1.2300e-01, 3.0100e-01, 1.9740e+00,
      3.0100e-01,-5.6000e-02, 1.2000e-02,-5.2700e-01, 4.1300e-01,-5.2000e-02,
     -2.7150e+00, 4.6000e-02,-2.3000e-02,-1.4400e-01, 1.3410e+00,-1.5300e-01,
     -3.9000e-02,-3.0000e-01,-1.9690e+00, 4.4000e-02,-1.4300e-01, 9.7000e-02,
      1.9070e+00,-6.6800e-01, 1.7700e-01, 1.5200e+00,-1.4368e+01,-1.7380e+00,
      8.2900e-01,-4.5990e+00,-2.8610e+00, 9.0300e-01, 1.7880e+00,-1.1330e+00,
     -1.3290e+00,-4.6060e+00,-2.7900e-01
    },
    {-2.0310e+00,-4.1700e-01,-5.0600e-01,-5.3000e-02,-1.1650e+00, 1.0330e+00,
      9.2000e-02,-1.3700e-01,-1.6950e+00,-1.8000e-02,-3.4000e-02, 2.4000e-02,
     -8.2400e-01, 2.2000e-02,-5.3300e-01, 7.0000e-02, 3.0200e-01, 1.9400e+00,
      2.4200e-01,-5.1000e-02,-2.2000e-02,-4.5700e-01, 3.8200e-01,-6.7000e-02,
     -2.7060e+00, 7.5000e-02, 3.1000e-02,-3.9000e-02, 1.3570e+00,-1.3300e-01,
     -4.8000e-02,-3.3300e-01,-2.0410e+00, 3.2000e-02,-2.1900e-01, 1.8500e-01,
      1.9330e+00,-7.4600e-01, 1.5900e-01, 1.3750e+00,-1.4153e+01,-1.5230e+00,
      7.7900e-01,-4.4790e+00,-2.8060e+00, 8.9400e-01, 1.7330e+00,-1.1260e+00,
     -1.2180e+00,-4.7610e+00,-3.7400e-01
    },
    {-2.1380e+00,-4.5000e-01,-4.7700e-01,-6.1000e-02,-1.1120e+00, 9.9200e-01,
      1.1400e-01,-1.2800e-01,-1.7220e+00,-5.3000e-02,-1.0200e-01,-2.7000e-02,
     -8.3500e-01, 1.9000e-02,-5.2600e-01, 6.8000e-02, 2.7400e-01, 2.0190e+00,
      2.8200e-01,-8.4000e-02, 1.9000e-02,-4.3600e-01, 3.8400e-01,-9.4000e-02,
     -2.7060e+00, 3.4000e-02, 5.0000e-02,-6.4000e-02, 1.3540e+00,-1.2500e-01,
     -4.6000e-02,-3.4500e-01,-1.9530e+00, 3.2000e-02,-1.9600e-01, 1.5300e-01,
      1.8950e+00,-7.6700e-01, 2.0700e-01, 1.3750e+00,-1.4143e+01,-1.4300e+00,
      8.0100e-01,-4.5450e+00,-2.8320e+00, 8.2800e-01, 1.7010e+00,-9.8000e-01,
     -1.1780e+00,-4.7960e+00,-3.9700e-01
    },
    {-2.1580e+00,-4.8100e-01,-5.0600e-01,-4.4000e-02,-1.1270e+00, 9.9000e-01,
      1.0900e-01,-1.5500e-01,-1.7320e+00,-9.6000e-02,-3.1000e-02,-9.6000e-02,
     -7.8600e-01, 2.4000e-02,-4.8600e-01, 6.3000e-02, 2.2200e-01, 1.9690e+00,
      2.5400e-01,-1.1400e-01,-4.2000e-02,-4.6700e-01, 4.1000e-01,-7.3000e-02,
     -2.6230e+00, 5.4000e-02, 5.3000e-02,-9.4000e-02, 1.3360e+00,-1.1300e-01,
     -3.7000e-02,-3.0100e-01,-1.9960e+00, 4.0000e-02,-1.9200e-01, 1.2200e-01,
      1.8630e+00,-7.7100e-01, 3.0900e-01, 1.3570e+00,-1.4048e+01,-1.4750e+00,
      7.5900e-01,-4.3670e+00,-2.9060e+00, 8.4500e-01, 1.6750e+00,-9.2100e-01,
     -1.0380e+00,-4.8800e+00,-3.8000e-01
    },
    {-2.1500e+00,-4.4400e-01,-5.7400e-01, 3.7000e-02,-1.1530e+00, 1.0020e+00,
      9.3000e-02,-1.3600e-01,-1.8010e+00,-8.8000e-02,-3.3000e-02,-1.4000e-02,
     -7.6900e-01, 3.5000e-02,-4.7000e-01, 6.5000e-02, 2.7600e-01, 2.0280e+00,
      2.3900e-01,-1.2400e-01,-6.7000e-02,-4.9000e-01, 4.4000e-01,-5.8000e-02,
     -2.6040e+00, 9.0000e-02, 7.9000e-02,-6.3000e-02, 1.3460e+00,-9.0000e-02,
     -3.6000e-02,-3.6500e-01,-2.0700e+00, 1.2000e-02,-1.5800e-01, 1.7600e-01,
      1.9220e+00,-7.8500e-01, 2.8100e-01, 1.3580e+00,-1.4028e+01,-1.3310e+00,
      7.9600e-01,-4.3310e+00,-3.0660e+00, 8.7500e-01, 1.6400e+00,-9.9600e-01,
     -1.0200e+00,-4.8400e+00,-3.9400e-01
    },
    {-2.1400e+00,-4.3500e-01,-5.9300e-01,-1.5000e-02,-1.1690e+00, 9.9600e-01,
      1.5300e-01,-1.4700e-01,-1.7380e+00,-7.6000e-02,-3.8000e-02,-2.3000e-02,
     -8.2100e-01, 3.7000e-02,-4.4300e-01, 8.4000e-02, 2.8700e-01, 1.9760e+00,
      2.4700e-01,-7.4000e-02,-6.0000e-02,-4.6800e-01, 4.5600e-01,-8.3000e-02,
     -2.5610e+00, 1.0900e-01, 1.2100e-01,-1.2300e-01, 1.2950e+00,-9.2000e-02,
     -5.7000e-02,-3.4500e-01,-1.9900e+00,-1.4000e-02,-1.3300e-01, 1.3300e-01,
      1.9030e+00,-8.1900e-01, 3.0200e-01, 1.2850e+00,-1.4074e+01,-1.5060e+00,
      7.2600e-01,-4.3470e+00,-3.1110e+00, 8.1900e-01, 1.6060e+00,-9.9200e-01,
     -1.1100e+00,-4.6620e+00,-4.1700e-01
    },
    {-2.1300e+00,-4.0200e-01,-5.3000e-01,-3.6000e-02,-1.1470e+00, 1.0240e+00,
      1.1600e-01,-1.6500e-01,-1.7330e+00,-1.3900e-01,-8.0000e-03, 1.6000e-02,
     -7.6000e-01, 2.7000e-02,-4.7100e-01, 7.4000e-02, 2.8400e-01, 1.9630e+00,
      2.6000e-01,-1.3200e-01,-3.0000e-03,-5.6200e-01, 4.3400e-01,-8.1000e-02,
     -2.6240e+00, 5.3000e-02, 6.5000e-02,-1.4700e-01, 1.3010e+00,-9.4000e-02,
     -6.3000e-02,-3.5200e-01,-2.0250e+00, 3.2000e-02,-1.7600e-01, 5.1000e-02,
      1.8970e+00,-8.4600e-01, 2.5200e-01, 1.2760e+00,-1.4072e+01,-1.4810e+00,
      6.9900e-01,-4.2450e+00,-3.1920e+00, 8.9800e-01, 1.5070e+00,-9.8400e-01,
     -1.0810e+00,-4.6620e+00,-3.8200e-01
    },
    {-2.1080e+00,-4.9800e-01,-5.3100e-01, 2.8000e-02,-1.2520e+00, 1.1220e+00,
      1.3900e-01,-1.5800e-01,-1.7600e+00,-1.2900e-01, 4.0000e-03,-5.5000e-02,
     -7.9300e-01, 3.6000e-02,-4.6900e-01, 1.1100e-01, 2.7400e-01, 1.9750e+00,
      2.8400e-01,-1.6100e-01,-2.0000e-02,-5.7400e-01, 4.2500e-01,-3.2000e-02,
     -2.6390e+00, 2.8000e-02, 9.0000e-03,-1.6100e-01, 1.3910e+00,-1.3800e-01,
     -1.3000e-02,-3.2100e-01,-2.0030e+00, 3.3000e-02,-2.6400e-01,-2.0000e-02,
      1.8760e+00,-8.2200e-01, 2.8500e-01, 1.3140e+00,-1.4039e+01,-1.6850e+00,
      7.0700e-01,-4.2450e+00,-3.1360e+00, 9.1300e-01, 1.5850e+00,-9.7400e-01,
     -1.1060e+00,-4.5460e+00,-4.0100e-01
    },
    {-2.0270e+00,-4.3200e-01,-6.2100e-01,-1.0000e-02,-1.2410e+00, 1.0480e+00,
      1.7300e-01,-1.3400e-01,-1.7860e+00,-1.2900e-01, 9.0000e-03,-2.6000e-02,
     -8.4400e-01, 4.0000e-02,-4.4900e-01, 9.9000e-02, 2.1500e-01, 2.0130e+00,
      3.2200e-01,-9.5000e-02,-3.6000e-02,-5.2300e-01, 5.0600e-01,-5.8000e-02,
     -2.5390e+00, 1.0500e-01,-6.5000e-02,-1.5600e-01, 1.4490e+00,-1.4100e-01,
     -4.3000e-02,-2.5700e-01,-2.0190e+00,-4.9000e-02,-2.5300e-01, 6.6000e-02,
      1.8780e+00,-8.1600e-01, 2.3700e-01, 1.3400e+00,-1.3871e+01,-1.5040e+00,
      6.2200e-01,-4.2390e+00,-3.0810e+00, 8.9200e-01, 1.4890e+00,-9.0100e-01,
     -1.2070e+00,-4.6290e+00,-3.8100e-01
    },
    {-1.9850e+00,-4.0600e-01,-6.0500e-01, 1.5000e-02,-1.2330e+00, 1.0800e+00,
      1.5000e-01,-1.5600e-01,-1.8430e+00,-1.3600e-01, 1.8000e-02,-4.4000e-02,
     -7.9900e-01, 2.8000e-02,-3.9600e-01, 1.0100e-01, 3.1900e-01, 2.1130e+00,
      3.5600e-01,-6.5000e-02,-4.2000e-02,-5.2300e-01, 5.0500e-01,-8.0000e-02,
     -2.4950e+00, 1.5300e-01,-2.9000e-02,-1.1300e-01, 1.3760e+00,-1.4200e-01,
     -4.4000e-02,-2.7900e-01,-1.9900e+00,-4.5000e-02,-2.8600e-01, 5.7000e-02,
      1.9280e+00,-7.4400e-01, 2.3600e-01, 1.3520e+00,-1.3976e+01,-1.5830e+00,
      7.0000e-01,-4.1650e+00,-2.9840e+00, 8.1900e-01, 1.4730e+00,-9.8800e-01,
     -1.1310e+00,-4.7280e+00,-3.9400e-01
    },
    {-1.9270e+00,-3.9300e-01,-5.5100e-01,-1.6000e-02,-1.2230e+00, 1.1900e+00,
      1.8900e-01,-1.6600e-01,-1.8540e+00,-1.3800e-01, 8.0000e-03, 2.0000e-02,
     -7.9100e-01, 4.7000e-02,-4.7300e-01, 1.2200e-01, 4.2300e-01, 2.1040e+00,
      3.2100e-01,-6.8000e-02,-6.7000e-02,-5.1300e-01, 4.3600e-01,-7.2000e-02,
     -2.4690e+00, 1.4700e-01,-1.5000e-02,-1.7100e-01, 1.3320e+00,-1.3700e-01,
      4.0000e-03,-3.3700e-01,-2.0700e+00,-4.0000e-02,-2.9700e-01, 7.3000e-02,
      1.8630e+00,-7.1200e-01, 1.9300e-01, 1.3510e+00,-1.3918e+01,-1.6340e+00,
      7.0700e-01,-4.2300e+00,-2.9440e+00, 8.1400e-01, 1.5180e+00,-9.8300e-01,
     -1.3080e+00,-4.7270e+00,-3.9900e-01
    },
    {-1.9130e+00,-3.5600e-01,-5.1300e-01, 3.0000e-02,-1.2300e+00, 1.1820e+00,
      1.5300e-01,-2.0600e-01,-1.8340e+00,-1.6300e-01, 8.0000e-03, 2.9000e-02,
     -7.8500e-01, 4.4000e-02,-4.5800e-01, 1.1400e-01, 3.3100e-01, 2.0780e+00,
      2.9400e-01,-7.9000e-02,-4.2000e-02,-5.3000e-01, 4.2900e-01,-7.3000e-02,
     -2.4820e+00, 1.1200e-01, 8.0000e-03,-1.6600e-01, 1.3330e+00,-1.3600e-01,
     -5.0000e-03,-3.6000e-01,-1.9850e+00,-3.0000e-02,-3.6700e-01, 7.7000e-02,
      1.9060e+00,-7.2500e-01, 1.8700e-01, 1.2800e+00,-1.3880e+01,-1.7460e+00,
      7.2800e-01,-4.1170e+00,-2.9010e+00, 8.7500e-01, 1.5960e+00,-9.9200e-01,
     -1.2290e+00,-4.6920e+00,-4.1800e-01
    },
    {-1.8340e+00,-4.0700e-01,-4.8600e-01,-6.0000e-02,-1.2870e+00, 1.1760e+00,
      1.6800e-01,-1.9600e-01,-1.9520e+00,-1.4400e-01,-1.3000e-02, 1.1800e-01,
     -8.0700e-01, 4.2000e-02,-4.7500e-01, 1.1100e-01, 2.9800e-01, 2.0100e+00,
      2.8200e-01,-1.0300e-01,-3.2000e-02,-5.0600e-01, 4.1300e-01,-2.5000e-02,
     -2.4720e+00, 9.5000e-02,-5.8000e-02,-1.4600e-01, 1.3680e+00,-1.4400e-01,
     -5.9000e-02,-2.8400e-01,-1.9920e+00, 0.0000e+00,-3.1800e-01, 3.8000e-02,
      1.9060e+00,-8.6800e-01, 1.3800e-01, 1.2510e+00,-1.3858e+01,-1.5760e+00,
      5.9300e-01,-4.0280e+00,-2.8600e+00, 8.9800e-01, 1.4870e+00,-1.0160e+00,
     -1.2340e+00,-4.8000e+00,-3.9200e-01
    },
    {-1.6950e+00,-4.4700e-01,-5.2300e-01,-4.8000e-02,-1.1830e+00, 1.1380e+00,
      1.2700e-01,-1.1400e-01,-1.9710e+00,-4.2000e-02, 5.0000e-03,-9.0000e-03,
     -8.0500e-01, 7.2000e-02,-4.6900e-01, 9.2000e-02, 2.6500e-01, 1.9250e+00,
      3.0600e-01,-7.5000e-02,-1.6000e-02,-5.9800e-01, 4.7400e-01,-1.2100e-01,
     -2.5230e+00,-5.0000e-03, 5.9000e-02,-1.3100e-01, 1.4110e+00,-1.4900e-01,
     -1.4000e-02,-3.7100e-01,-2.0040e+00,-1.0000e-01,-2.6800e-01, 8.7000e-02,
      2.0260e+00,-8.7300e-01, 1.7300e-01, 1.0790e+00,-1.3896e+01,-1.5770e+00,
      6.7400e-01,-4.1270e+00,-2.9820e+00, 9.1400e-01, 1.4450e+00,-9.0200e-01,
     -1.1990e+00,-4.8440e+00,-4.3500e-01
    },
    {-1.7040e+00,-4.3800e-01,-5.4600e-01,-2.8000e-02,-1.2590e+00, 1.0950e+00,
      2.0500e-01,-1.9100e-01,-1.9700e+00,-3.3000e-02,-1.5000e-02, 3.7000e-02,
     -7.7000e-01, 5.0000e-02,-4.3400e-01, 1.1100e-01, 2.1800e-01, 1.9330e+00,
      2.9800e-01,-4.7000e-02,-6.0000e-03,-5.5900e-01, 4.5000e-01,-8.4000e-02,
     -2.5540e+00, 4.6000e-02, 6.1000e-02,-9.8000e-02, 1.3880e+00,-1.0800e-01,
     -7.3000e-02,-3.2700e-01,-1.9870e+00,-8.5000e-02,-2.8200e-01, 8.5000e-02,
      1.9650e+00,-9.0900e-01, 1.8300e-01, 1.1070e+00,-1.3861e+01,-1.7510e+00,
      6.6200e-01,-4.1470e+00,-2.8290e+00, 8.6800e-01, 1.3930e+00,-8.5800e-01,
     -1.2630e+00,-4.7830e+00,-3.0400e-01
    },
    {-1.7650e+00,-4.3600e-01,-4.7200e-01,-1.6000e-02,-1.2470e+00, 1.0140e+00,
      1.5900e-01,-2.0400e-01,-2.0290e+00,-7.0000e-03, 2.0000e-02, 5.7000e-02,
     -7.8100e-01, 3.7000e-02,-4.2100e-01, 1.2200e-01, 2.3900e-01, 1.9430e+00,
      2.5100e-01,-1.7000e-02,-5.7000e-02,-5.1000e-01, 5.1700e-01,-1.0300e-01,
     -2.5150e+00, 1.3000e-01, 8.9000e-02,-1.5300e-01, 1.3890e+00,-8.9000e-02,
     -4.8000e-02,-3.5200e-01,-1.9080e+00,-5.4000e-02,-3.1700e-01, 6.2000e-02,
      1.9810e+00,-8.7200e-01, 1.2000e-01, 1.1130e+00,-1.3864e+01,-1.7280e+00,
      6.7000e-01,-4.1280e+00,-2.8340e+00, 8.6200e-01, 1.4210e+00,-8.3100e-01,
     -1.3590e+00,-4.9700e+00,-2.9800e-01
    },
    {-1.8080e+00,-3.0200e-01,-5.8600e-01,-7.9000e-02,-1.2270e+00, 1.0580e+00,
      1.2300e-01,-1.7600e-01,-1.9740e+00,-1.0000e-03,-1.0900e-01,-8.9000e-02,
     -8.0800e-01, 4.2000e-02,-3.9400e-01, 1.3500e-01, 3.5200e-01, 1.8750e+00,
      2.1400e-01,-7.7000e-02,-5.6000e-02,-4.8900e-01, 5.1000e-01,-1.0200e-01,
     -2.5260e+00, 1.2200e-01, 3.5000e-02,-1.0800e-01, 1.4410e+00,-1.4200e-01,
      2.1000e-02,-3.4500e-01,-1.8460e+00,-2.3000e-02,-2.9100e-01, 1.0000e-01,
      1.9600e+00,-7.8700e-01, 9.7000e-02, 1.0800e+00,-1.3959e+01,-1.7320e+00,
      6.9400e-01,-4.1260e+00,-2.9280e+00, 9.1900e-01, 1.4430e+00,-7.3000e-01,
     -1.3310e+00,-5.0570e+00,-3.1100e-01
    },
    {-1.8600e+00,-2.0500e-01,-6.0500e-01,-2.0000e-03,-1.1930e+00, 1.0710e+00,
      1.6100e-01,-1.3800e-01,-1.9830e+00,-3.0000e-02,-8.5000e-02,-7.9000e-02,
     -8.0600e-01, 9.0000e-03,-4.0900e-01, 1.3000e-01, 3.5000e-01, 1.8790e+00,
      2.3100e-01,-5.8000e-02,-5.3000e-02,-4.6900e-01, 4.8300e-01,-1.0900e-01,
     -2.5000e+00, 1.3200e-01, 1.3000e-01,-1.1500e-01, 1.4460e+00,-9.9000e-02,
     -3.0000e-03,-3.5100e-01,-1.7380e+00, 2.2000e-02,-2.9700e-01, 3.6000e-02,
      1.9520e+00,-7.1200e-01, 1.2000e-01, 1.1450e+00,-1.3870e+01,-1.6060e+00,
      6.1700e-01,-4.1600e+00,-2.9820e+00, 8.7900e-01, 1.3870e+00,-7.7600e-01,
     -1.4320e+00,-5.1020e+00,-3.8000e-01
    },
    {-1.8930e+00,-8.9000e-02,-5.1100e-01,-8.9000e-02,-1.1670e+00, 1.0830e+00,
      1.5000e-01,-1.6600e-01,-2.0070e+00,-5.0000e-02,-7.2000e-02,-1.0200e-01,
     -8.1200e-01, 2.9000e-02,-4.1500e-01, 1.6700e-01, 3.0000e-01, 1.9080e+00,
      2.9500e-01,-1.0900e-01,-7.0000e-02,-5.3400e-01, 5.1000e-01,-1.1300e-01,
     -2.5410e+00, 1.4000e-01, 4.7000e-02,-9.4000e-02, 1.3990e+00,-9.5000e-02,
      3.7000e-02,-3.7300e-01,-1.6990e+00, 5.2000e-02,-2.4100e-01,-7.5000e-02,
      1.9780e+00,-6.8000e-01, 1.0300e-01, 1.1260e+00,-1.3936e+01,-1.6250e+00,
      6.8800e-01,-4.1250e+00,-2.9910e+00, 9.1200e-01, 1.3240e+00,-8.6900e-01,
     -1.3470e+00,-5.1110e+00,-4.1500e-01
    },
    {-1.8810e+00,-1.4700e-01,-5.9300e-01,-1.2300e-01,-1.1880e+00, 1.1290e+00,
      1.1900e-01,-1.9500e-01,-2.0420e+00,-5.8000e-02,-1.8000e-02,-1.1000e-01,
     -7.2000e-01, 1.0000e-02,-3.7900e-01, 1.6900e-01, 2.2700e-01, 1.8810e+00,
      2.6300e-01,-1.6700e-01,-1.5000e-02,-5.4100e-01, 4.5300e-01,-5.4000e-02,
     -2.4600e+00, 1.2600e-01,-1.6000e-02,-1.3500e-01, 1.3620e+00,-9.8000e-02,
      3.7000e-02,-3.7600e-01,-1.6770e+00, 4.8000e-02,-2.2400e-01,-3.9000e-02,
      2.0270e+00,-6.7600e-01, 7.8000e-02, 1.1020e+00,-1.4059e+01,-1.7160e+00,
      6.6000e-01,-4.2260e+00,-2.9930e+00, 9.1900e-01, 1.4100e+00,-9.1100e-01,
     -1.4160e+00,-5.2240e+00,-4.3700e-01
    },
    {-1.8690e+00,-1.3700e-01,-6.7900e-01,-9.2000e-02,-1.1770e+00, 1.1850e+00,
      1.2400e-01,-1.9300e-01,-2.0780e+00,-5.3000e-02, 1.6000e-02,-4.8000e-02,
     -6.7100e-01, 8.0000e-03,-3.7400e-01, 1.8600e-01, 3.0100e-01, 1.8590e+00,
      2.3600e-01,-1.1800e-01, 4.0000e-03,-5.4700e-01, 4.4700e-01,-7.2000e-02,
     -2.4760e+00, 1.2400e-01,-3.3000e-02,-1.1400e-01, 1.3130e+00,-8.1000e-02,
      1.1000e-02,-4.0000e-01,-1.6770e+00, 2.8000e-02,-2.5300e-01,-5.4000e-02,
      2.0030e+00,-7.1900e-01, 3.2000e-02, 1.0900e+00,-1.3967e+01,-1.7430e+00,
      6.3100e-01,-4.0880e+00,-2.9510e+00, 9.0700e-01, 1.3420e+00,-9.8400e-01,
     -1.4250e+00,-5.0750e+00,-3.4100e-01
    },
    {-1.8950e+00,-1.9800e-01,-5.9000e-01,-1.1300e-01,-1.2000e+00, 1.1780e+00,
      9.7000e-02,-2.3300e-01,-2.0700e+00,-4.0000e-03,-1.8000e-02,-1.1800e-01,
     -6.6600e-01, 1.2000e-02,-3.7200e-01, 1.7900e-01, 3.0000e-01, 1.8720e+00,
      2.5900e-01,-1.5300e-01,-6.6000e-02,-5.9900e-01, 4.7500e-01,-2.7000e-02,
     -2.4920e+00, 8.9000e-02,-3.2000e-02,-1.1500e-01, 1.3300e+00,-9.3000e-02,
      2.1000e-02,-4.1400e-01,-1.6820e+00, 7.3000e-02,-2.6000e-01,-6.0000e-03,
      2.0010e+00,-7.0700e-01, 4.3000e-02, 1.0400e+00,-1.3889e+01,-1.6680e+00,
      6.5200e-01,-4.0800e+00,-2.9590e+00, 9.5300e-01, 1.2860e+00,-1.1220e+00,
     -1.3790e+00,-5.0260e+00,-4.0400e-01
    },
    {-2.0140e+00,-1.5100e-01,-6.6800e-01,-8.0000e-03,-1.1780e+00, 1.0810e+00,
      1.2900e-01,-2.3900e-01,-2.1280e+00,-7.0000e-02,-5.6000e-02,-7.9000e-02,
     -6.5700e-01, 2.1000e-02,-4.0300e-01, 1.4200e-01, 3.4500e-01, 1.8320e+00,
      1.9600e-01,-9.8000e-02,-6.8000e-02,-6.4900e-01, 4.5900e-01,-9.0000e-02,
     -2.5780e+00,-1.3000e-02, 4.0000e-03,-1.2100e-01, 1.4870e+00,-1.2000e-02,
     -5.4000e-02,-4.1600e-01,-1.7640e+00,-1.0000e-03,-3.5000e-01,-7.9000e-02,
      1.9520e+00,-6.4100e-01, 4.2000e-02, 9.5400e-01,-1.3920e+01,-1.7370e+00,
      6.5900e-01,-4.1610e+00,-2.8570e+00, 9.6300e-01, 1.1890e+00,-1.1220e+00,
     -1.4200e+00,-5.0420e+00,-4.3600e-01
    },
    {-2.0510e+00,-1.1500e-01,-6.3800e-01,-1.7000e-02,-1.1450e+00, 1.0830e+00,
      1.5800e-01,-2.3600e-01,-2.1360e+00,-4.8000e-02,-5.4000e-02,-1.1100e-01,
     -6.7000e-01, 1.4000e-02,-3.8900e-01, 1.5600e-01, 3.5000e-01, 1.8290e+00,
      2.1400e-01,-1.1100e-01,-6.3000e-02,-5.7500e-01, 4.8700e-01,-1.0700e-01,
     -2.5800e+00,-0.0000e+00,-6.7000e-02,-1.3100e-01, 1.4730e+00,-6.1000e-02,
     -4.6000e-02,-4.1200e-01,-1.7130e+00,-3.8000e-02,-3.3300e-01,-5.9000e-02,
      2.0380e+00,-7.0100e-01, 3.5000e-02, 9.6100e-01,-1.3913e+01,-1.7290e+00,
      5.8900e-01,-4.0100e+00,-2.8430e+00, 9.0800e-01, 1.1950e+00,-1.1630e+00,
     -1.3840e+00,-5.0020e+00,-3.6900e-01
    },
    {-2.0370e+00,-1.2700e-01,-6.2600e-01,-2.5000e-02,-1.1280e+00, 1.0770e+00,
      1.4900e-01,-2.2800e-01,-2.0750e+00,-8.2000e-02,-6.2000e-02,-1.0400e-01,
     -6.5200e-01, 1.4000e-02,-4.1400e-01, 1.7400e-01, 3.6000e-01, 1.7540e+00,
      2.2000e-01,-1.4100e-01,-5.1000e-02,-5.3200e-01, 4.6700e-01,-4.3000e-02,
     -2.5820e+00,-1.9000e-02, 1.1000e-02,-9.2000e-02, 1.4060e+00,-4.6000e-02,
     -2.2000e-02,-4.1100e-01,-1.7290e+00,-5.0000e-02,-3.1100e-01,-1.7000e-02,
      2.0660e+00,-6.3600e-01, 7.1000e-02, 1.0120e+00,-1.4011e+01,-1.6630e+00,
      6.2900e-01,-4.1990e+00,-2.7640e+00, 9.3500e-01, 1.2650e+00,-1.0850e+00,
     -1.3330e+00,-5.0280e+00,-3.1300e-01
    },
    {-2.0890e+00,-1.5200e-01,-5.4700e-01,-5.4000e-02,-1.1830e+00, 1.0870e+00,
      1.5000e-01,-2.7300e-01,-2.0010e+00, 4.5000e-02,-2.2000e-02,-8.5000e-02,
     -6.1800e-01, 6.0000e-03,-4.1800e-01, 1.3900e-01, 2.7300e-01, 1.8540e+00,
      2.1700e-01,-1.5000e-01, 3.0000e-03,-5.5500e-01, 5.2400e-01,-8.4000e-02,
     -2.4960e+00,-6.4000e-02,-7.4000e-02,-9.5000e-02, 1.3050e+00,-9.9000e-02,
     -6.0000e-02,-3.4900e-01,-1.7680e+00,-9.6000e-02,-3.4700e-01, 4.0000e-02,
      2.1650e+00,-6.9700e-01, 4.6000e-02, 1.0110e+00,-1.3819e+01,-1.6100e+00,
      4.9500e-01,-4.1680e+00,-2.7820e+00, 9.0800e-01, 1.1820e+00,-9.0200e-01,
     -1.2850e+00,-5.0110e+00,-3.5300e-01
    },
    {-2.0530e+00,-1.4300e-01,-5.6900e-01,-1.5000e-02,-1.2020e+00, 1.1110e+00,
      2.0500e-01,-2.9700e-01,-2.0010e+00, 5.7000e-02,-1.5000e-02,-6.2000e-02,
     -6.3000e-01, 1.2000e-02,-4.3700e-01, 1.2100e-01, 3.3500e-01, 1.8700e+00,
      2.4900e-01,-1.6100e-01, 2.0000e-03,-5.7700e-01, 5.0400e-01,-7.5000e-02,
     -2.5340e+00,-9.6000e-02,-4.8000e-02, 5.0000e-03, 1.2580e+00,-1.0700e-01,
     -5.0000e-02,-3.3100e-01,-1.7840e+00,-1.3000e-01,-3.2300e-01, 7.2000e-02,
      2.1810e+00,-6.5100e-01,-2.0000e-03, 1.0490e+00,-1.3818e+01,-1.4720e+00,
